{"learner":{"attributes":{"scikit_learn":"{\"_estimator_type\": \"classifier\"}"},"feature_names":["Recency","Frequency","Monetary","AvgBasketSize","DistinctProducts","TenureDays","AvgOrderValue","PurchaseFreqPerMonth"],"feature_types":["int","int","float","float","int","int","float","float"],"gradient_booster":{"model":{"gbtree_model_param":{"num_parallel_tree":"1","num_trees":"100"},"iteration_indptr":[0,1,2,3,4,5,6,7,8,9,10,11,12,13,14,15,16,17,18,19,20,21,22,23,24,25,26,27,28,29,30,31,32,33,34,35,36,37,38,39,40,41,42,43,44,45,46,47,48,49,50,51,52,53,54,55,56,57,58,59,60,61,62,63,64,65,66,67,68,69,70,71,72,73,74,75,76,77,78,79,80,81,82,83,84,85,86,87,88,89,90,91,92,93,94,95,96,97,98,99,100],"tree_info":[0,0,0,0,0,0,0,0,0,0,0,0,0,0,0,0,0,0,0,0,0,0,0,0,0,0,0,0,0,0,0,0,0,0,0,0,0,0,0,0,0,0,0,0,0,0,0,0,0,0,0,0,0,0,0,0,0,0,0,0,0,0,0,0,0,0,0,0,0,0,0,0,0,0,0,0,0,0,0,0,0,0,0,0,0,0,0,0,0,0,0,0,0,0,0,0,0,0,0,0],"trees":[{"base_weights":[3.1616576E-2,-1.3194842E0,1.846695E0,-9.0829206E-1,-1.8396863E0,1.247513E0,1.9705949E0,-3.839479E-2,1.1287738E-3,-6.698134E-2,-3.446422E-2,-2.0966543E-2,4.560778E-2,6.0969487E-2,6.893218E-2],"categories":[],"categories_nodes":[],"categories_segments":[],"categories_sizes":[],"default_left":[0,0,0,0,0,0,0,0,0,0,0,0,0,0,0],"id":0,"left_children":[1,3,5,7,9,11,13,-1,-1,-1,-1,-1,-1,-1,-1],"loss_changes":[2.3622034E3,1.1808215E2,3.0475098E1,5.9166443E1,2.056659E1,9.618034E0,1.7664795E0,0E0,0E0,0E0,0E0,0E0,0E0,0E0,0E0],"parents":[2147483647,0,0,1,1,2,2,3,3,4,4,5,5,6,6],"right_children":[2,4,6,8,10,12,14,-1,-1,-1,-1,-1,-1,-1,-1],"split_conditions":[4E1,2.079059E4,6.9E1,2.5E1,2E1,1.1E1,9E1,-3.839479E-2,1.1287738E-3,-6.698134E-2,-3.446422E-2,-2.0966543E-2,4.560778E-2,6.0969487E-2,6.893218E-2],"split_indices":[0,2,0,0,0,5,0,0,0,0,0,0,0,0,0],"split_type":[0,0,0,0,0,0,0,0,0,0,0,0,0,0,0],"sum_hessian":[9.6323254E2,5.5219006E2,4.1104242E2,3.0842404E2,2.4376605E2,7.045114E1,3.405913E2,2.5352104E2,5.4902996E1,2.1775536E2,2.6010698E1,2.6801E0,6.777104E1,3.8523895E1,3.020674E2],"tree_param":{"num_deleted":"0","num_feature":"8","num_nodes":"15","size_leaf_vector":"1"}},{"base_weights":[4.164136E-3,-1.2736905E0,1.7442102E0,-1.5217596E0,-4.4243634E-1,1.0719366E0,1.8922449E0,-4.2752054E-2,-6.362466E-2,-4.372152E-3,-6.0122952E-2,4.0625036E-2,-4.882618E-2,5.758937E-2,6.63932E-2],"categories":[],"categories_nodes":[],"categories_segments":[],"categories_sizes":[],"default_left":[0,0,0,0,0,0,0,0,0,0,0,0,0,0,0],"id":1,"left_children":[1,3,5,7,9,11,13,-1,-1,-1,-1,-1,-1,-1,-1],"loss_changes":[2.1357617E3,1.1417792E2,4.043982E1,3.8784607E1,5.2201736E1,1.9125656E1,2.2589111E0,0E0,0E0,0E0,0E0,0E0,0E0,0E0,0E0],"parents":[2147483647,0,0,1,1,2,2,3,3,4,4,5,5,6,6],"right_children":[2,4,6,8,10,12,14,-1,-1,-1,-1,-1,-1,-1,-1],"split_conditions":[4E1,1.7E1,7.2E1,2.3E1,3.34E2,3.94E2,9E1,-4.2752054E-2,-6.362466E-2,-4.372152E-3,-6.0122952E-2,4.0625036E-2,-4.882618E-2,5.758937E-2,6.63932E-2],"split_indices":[0,0,0,1,5,5,0,0,0,0,0,0,0,0,0],"split_type":[0,0,0,0,0,0,0,0,0,0,0,0,0,0,0],"sum_hessian":[9.605226E2,5.5381006E2,4.0671252E2,4.265122E2,1.27297844E2,7.341273E1,3.332998E2,2.2658156E2,1.9993065E2,1.0241225E2,2.4885592E1,7.044922E1,2.9635086E0,4.0381504E1,2.929183E2],"tree_param":{"num_deleted":"0","num_feature":"8","num_nodes":"15","size_leaf_vector":"1"}},{"base_weights":[-4.0533062E-2,-1.2883589E0,1.6744643E0,-1.48877E0,-3.4049493E-1,8.424672E-1,1.8117155E0,-3.994113E-2,-6.0735296E-2,-4.101781E-3,-5.02341E-2,3.4983687E-2,-6.8776056E-2,5.440602E-2,6.4198054E-2],"categories":[],"categories_nodes":[],"categories_segments":[],"categories_sizes":[],"default_left":[0,0,0,0,0,0,0,0,0,0,0,0,0,0,0],"id":2,"left_children":[1,3,5,7,9,11,13,-1,-1,-1,-1,-1,-1,-1,-1],"loss_changes":[2.0541733E3,1.0552667E2,4.6131836E1,4.1127197E1,2.3945961E1,2.7723919E1,3.8677979E0,0E0,0E0,0E0,0E0,0E0,0E0,0E0,0E0],"parents":[2147483647,0,0,1,1,2,2,3,3,4,4,5,5,6,6],"right_children":[2,4,6,8,10,12,14,-1,-1,-1,-1,-1,-1,-1,-1],"split_conditions":[4E1,2.1E1,5.8E1,1.72733E4,3.29E2,3.94E2,9E1,-3.994113E-2,-6.0735296E-2,-4.101781E-3,-5.02341E-2,3.4983687E-2,-6.8776056E-2,5.440602E-2,6.4198054E-2],"split_indices":[0,0,0,2,5,5,0,0,0,0,0,0,0,0,0],"split_type":[0,0,0,0,0,0,0,0,0,0,0,0,0,0,0],"sum_hessian":[9.598834E2,5.556218E2,4.042616E2,4.5863745E2,9.698441E1,5.7259182E1,3.470024E2,2.0595712E2,2.5268031E2,8.090451E1,1.6079903E1,5.400919E1,3.2499917E0,5.8529114E1,2.884733E2],"tree_param":{"num_deleted":"0","num_feature":"8","num_nodes":"15","size_leaf_vector":"1"}},{"base_weights":[-2.1468375E-2,-1.2585609E0,1.5424697E0,-1.4662066E0,-4.629524E-1,7.3127985E-1,1.7878156E0,-4.275237E-2,-6.094214E-2,-7.908916E-3,-5.1619522E-2,3.0899018E-2,-4.2061344E-2,5.7968162E-2,6.254311E-2],"categories":[],"categories_nodes":[],"categories_segments":[],"categories_sizes":[],"default_left":[0,0,0,0,0,0,0,0,0,0,0,0,0,0,0],"id":3,"left_children":[1,3,5,7,9,11,13,-1,-1,-1,-1,-1,-1,-1,-1],"loss_changes":[1.8577789E3,8.8550415E1,8.437213E1,2.8930481E1,2.6771544E1,3.1436676E1,7.969971E-1,0E0,0E0,0E0,0E0,0E0,0E0,0E0,0E0],"parents":[2147483647,0,0,1,1,2,2,3,3,4,4,5,5,6,6],"right_children":[2,4,6,8,10,12,14,-1,-1,-1,-1,-1,-1,-1,-1],"split_conditions":[3.4E1,1.7E1,7.2E1,2.408183E4,3.34E2,3.82E2,1.03E2,-4.275237E-2,-6.094214E-2,-7.908916E-3,-5.1619522E-2,3.0899018E-2,-4.2061344E-2,5.7968162E-2,6.254311E-2],"split_indices":[0,0,0,2,5,5,0,0,0,0,0,0,0,0,0],"split_type":[0,0,0,0,0,0,0,0,0,0,0,0,0,0,0],"sum_hessian":[9.6022064E2,5.361373E2,4.2408328E2,4.2515958E2,1.1097777E2,9.849175E1,3.2559155E2,2.413044E2,1.8385518E2,9.0489E1,2.0488771E1,9.086782E1,7.6239324E0,5.849473E1,2.670968E2],"tree_param":{"num_deleted":"0","num_feature":"8","num_nodes":"15","size_leaf_vector":"1"}},{"base_weights":[-2.479403E-3,-1.234757E0,1.5383353E0,-1.3799464E0,-2.9112184E-1,6.433723E-1,1.718577E0,-3.1680226E-2,-5.3889085E-2,2.4565824E-3,-2.8102411E-2,-1.6267603E-2,2.879866E-2,4.9888976E-2,6.0506724E-2],"categories":[],"categories_nodes":[],"categories_segments":[],"categories_sizes":[],"default_left":[0,0,0,0,0,0,0,0,0,0,0,0,0,0,0],"id":4,"left_children":[1,3,5,7,9,11,13,-1,-1,-1,-1,-1,-1,-1,-1],"loss_changes":[1.8169312E3,7.2827576E1,6.856531E1,3.852173E1,1.3440815E1,1.5165735E1,3.2529297E0,0E0,0E0,0E0,0E0,0E0,0E0,0E0,0E0],"parents":[2147483647,0,0,1,1,2,2,3,3,4,4,5,5,6,6],"right_children":[2,4,6,8,10,12,14,-1,-1,-1,-1,-1,-1,-1,-1],"split_conditions":[3.5E1,2.2E1,5.6E1,2.8125E0,3.9E1,4E0,8E1,-3.1680226E-2,-5.3889085E-2,2.4565824E-3,-2.8102411E-2,-1.6267603E-2,2.879866E-2,4.9888976E-2,6.0506724E-2],"split_indices":[0,0,0,7,4,1,0,0,0,0,0,0,0,0,0],"split_type":[0,0,0,0,0,0,0,0,0,0,0,0,0,0,0],"sum_hessian":[9.5692596E2,5.317014E2,4.2522452E2,4.6079083E2,7.091058E1,7.129418E1,3.5393036E2,1.2964764E2,3.311432E2,4.187687E1,2.9033714E1,1.041145E1,6.088273E1,3.9192627E1,3.1473773E2],"tree_param":{"num_deleted":"0","num_feature":"8","num_nodes":"15","size_leaf_vector":"1"}},{"base_weights":[-1.5434714E-3,4.2628667E-1,-1.0158526E0,7.220519E-1,-9.7374475E-1,-6.843451E-1,-1.5154073E0,4.064727E-2,2.116908E-2,-1.2613859E-2,-5.408521E-2,-6.9270926E-3,-3.8364295E-2,-5.5799123E-2,-2.347042E-2],"categories":[],"categories_nodes":[],"categories_segments":[],"categories_sizes":[],"default_left":[0,0,0,0,0,0,0,0,0,0,0,0,0,0,0],"id":5,"left_children":[1,3,5,7,9,11,13,-1,-1,-1,-1,-1,-1,-1,-1],"loss_changes":[4.1492953E2,2.784628E2,4.6950073E1,2.7503662E1,4.227935E1,3.51967E1,9.504578E0,0E0,0E0,0E0,0E0,0E0,0E0,0E0,0E0],"parents":[2147483647,0,0,1,1,2,2,3,3,4,4,5,5,6,6],"right_children":[2,4,6,8,10,12,14,-1,-1,-1,-1,-1,-1,-1,-1],"split_conditions":[4.117647E0,3.36E2,3.1722E4,1.5789474E0,3.96E2,5.4261956E0,1.0757207E3,4.064727E-2,2.116908E-2,-1.2613859E-2,-5.408521E-2,-6.9270926E-3,-3.8364295E-2,-5.5799123E-2,-2.347042E-2],"split_indices":[7,5,2,7,5,7,6,0,0,0,0,0,0,0,0],"split_type":[0,0,0,0,0,0,0,0,0,0,0,0,0,0,0],"sum_hessian":[9.5614545E2,6.724853E2,2.8366013E2,5.552039E2,1.1728142E2,1.7052536E2,1.1313478E2,1.0712603E2,4.4807785E2,5.7893192E1,5.9388226E1,7.995641E1,9.056894E1,1.0093943E2,1.219535E1],"tree_param":{"num_deleted":"0","num_feature":"8","num_nodes":"15","size_leaf_vector":"1"}},{"base_weights":[-1.1842919E-2,-1.1260165E0,1.5540388E0,-1.3633639E0,-3.4689027E-1,1.0146356E0,1.6769634E0,-3.5845924E-2,-5.3666737E-2,-3.7669602E-3,-5.011462E-2,-1.9312674E-2,3.7898522E-2,5.0033383E-2,5.8436785E-2],"categories":[],"categories_nodes":[],"categories_segments":[],"categories_sizes":[],"default_left":[0,0,0,0,0,0,0,0,0,0,0,0,0,0,0],"id":6,"left_children":[1,3,5,7,9,11,13,-1,-1,-1,-1,-1,-1,-1,-1],"loss_changes":[1.6412133E3,1.0162048E2,2.5897644E1,2.614032E1,3.3697674E1,9.504448E0,1.09729E0,0E0,0E0,0E0,0E0,0E0,0E0,0E0,0E0],"parents":[2147483647,0,0,1,1,2,2,3,3,4,4,5,5,6,6],"right_children":[2,4,6,8,10,12,14,-1,-1,-1,-1,-1,-1,-1,-1],"split_conditions":[4E1,1.7E1,7.2E1,1.296724E4,3.34E2,2.2E1,8.4E1,-3.5845924E-2,-5.3666737E-2,-3.7669602E-3,-5.011462E-2,-1.9312674E-2,3.7898522E-2,5.0033383E-2,5.8436785E-2],"split_indices":[0,0,0,2,5,5,0,0,0,0,0,0,0,0,0],"split_type":[0,0,0,0,0,0,0,0,0,0,0,0,0,0,0],"sum_hessian":[9.4070276E2,5.496308E2,3.9107193E2,4.2127972E2,1.2835109E2,7.260107E1,3.1847086E2,1.5599706E2,2.6528265E2,1.0562755E2,2.2723549E1,3.633766E0,6.89673E1,2.0565039E1,2.9790582E2],"tree_param":{"num_deleted":"0","num_feature":"8","num_nodes":"15","size_leaf_vector":"1"}},{"base_weights":[1.7795699E-2,-1.1457407E0,1.4310957E0,-1.3829744E0,-6.1869025E-1,6.684294E-1,1.6166707E0,-3.5533376E-2,-5.5058114E-2,-1.3457527E-2,-5.296644E-2,3.0708391E-2,-2.4840593E-2,4.8548877E-2,5.721956E-2],"categories":[],"categories_nodes":[],"categories_segments":[],"categories_sizes":[],"default_left":[0,0,0,0,0,0,0,0,0,0,0,0,0,0,0],"id":7,"left_children":[1,3,5,7,9,11,13,-1,-1,-1,-1,-1,-1,-1,-1],"loss_changes":[1.5755771E3,6.568121E1,6.1204468E1,2.7116943E1,3.4161644E1,2.5984344E1,2.942566E0,0E0,0E0,0E0,0E0,0E0,0E0,0E0,0E0],"parents":[2147483647,0,0,1,1,2,2,3,3,4,4,5,5,6,6],"right_children":[2,4,6,8,10,12,14,-1,-1,-1,-1,-1,-1,-1,-1],"split_conditions":[3.4E1,1.2E1,6E1,3.6E1,3.34E2,3.4E2,9E1,-3.5533376E-2,-5.5058114E-2,-1.3457527E-2,-5.296644E-2,3.0708391E-2,-2.4840593E-2,4.8548877E-2,5.721956E-2],"split_indices":[0,0,0,4,5,5,0,0,0,0,0,0,0,0,0],"split_type":[0,0,0,0,0,0,0,0,0,0,0,0,0,0,0],"sum_hessian":[9.5812573E2,5.2549274E2,4.32633E2,3.6236325E2,1.6312946E2,8.468163E1,3.4795135E2,1.3573166E2,2.2663159E2,1.3051381E2,3.2615658E1,7.305527E1,1.1626368E1,5.6455906E1,2.9149545E2],"tree_param":{"num_deleted":"0","num_feature":"8","num_nodes":"15","size_leaf_vector":"1"}},{"base_weights":[-1.37549965E-2,-1.1355387E0,1.4101061E0,-1.335479E0,-5.891692E-1,6.306214E-1,1.5858933E0,-3.7352607E-2,-5.593726E-2,-1.2908262E-2,-4.8991162E-2,2.588284E-2,-4.8365973E-2,4.7674812E-2,5.6148905E-2],"categories":[],"categories_nodes":[],"categories_segments":[],"categories_sizes":[],"default_left":[0,0,0,0,0,0,0,0,0,0,0,0,0,0,0],"id":8,"left_children":[1,3,5,7,9,11,13,-1,-1,-1,-1,-1,-1,-1,-1],"loss_changes":[1.4873983E3,5.687726E1,5.6201782E1,2.7497498E1,2.4912384E1,1.8266924E1,2.7403564E0,0E0,0E0,0E0,0E0,0E0,0E0,0E0,0E0],"parents":[2147483647,0,0,1,1,2,2,3,3,4,4,5,5,6,6],"right_children":[2,4,6,8,10,12,14,-1,-1,-1,-1,-1,-1,-1,-1],"split_conditions":[3.5E1,1.4E1,6E1,2.192716E4,3.34E2,3.94E2,9E1,-3.7352607E-2,-5.593726E-2,-1.2908262E-2,-4.8991162E-2,2.588284E-2,-4.8365973E-2,4.7674812E-2,5.6148905E-2],"split_indices":[0,0,0,2,5,5,0,0,0,0,0,0,0,0,0],"split_type":[0,0,0,0,0,0,0,0,0,0,0,0,0,0,0],"sum_hessian":[9.312137E2,5.208623E2,4.1035138E2,3.8130368E2,1.3955861E2,7.552521E1,3.3482617E2,2.0173038E2,1.7957332E2,1.10825516E2,2.8733091E1,7.134967E1,4.1755357E0,5.5268894E1,2.7955728E2],"tree_param":{"num_deleted":"0","num_feature":"8","num_nodes":"15","size_leaf_vector":"1"}},{"base_weights":[-7.8052953E-3,3.45404E-1,-9.488115E-1,5.36376E-1,-1.4320565E0,-6.809517E-1,-1.4349364E0,2.1465886E-2,-5.812995E-3,-3.7470676E-2,-5.44855E-2,-8.275443E-3,-3.4537055E-2,-5.0805774E-2,4.8432726E-2],"categories":[],"categories_nodes":[],"categories_segments":[],"categories_sizes":[],"default_left":[0,0,0,0,0,0,0,0,0,0,0,0,0,0,0],"id":9,"left_children":[1,3,5,7,9,11,13,-1,-1,-1,-1,-1,-1,-1,-1],"loss_changes":[3.0475143E2,2.2628012E2,3.2559143E1,3.6230743E1,3.2439117E0,2.2728607E1,9.253677E0,0E0,0E0,0E0,0E0,0E0,0E0,0E0,0E0],"parents":[2147483647,0,0,1,1,2,2,3,3,4,4,5,5,6,6],"right_children":[2,4,6,8,10,12,14,-1,-1,-1,-1,-1,-1,-1,-1],"split_conditions":[4.285714E0,3.96E2,3.245222E4,3.32E2,4.29E2,5.4261956E0,8.206897E0,2.1465886E-2,-5.812995E-3,-3.7470676E-2,-5.44855E-2,-8.275443E-3,-3.4537055E-2,-5.0805774E-2,4.8432726E-2],"split_indices":[7,5,2,5,5,7,3,0,0,0,0,0,0,0,0],"split_type":[0,0,0,0,0,0,0,0,0,0,0,0,0,0,0],"sum_hessian":[9.1687427E2,6.666392E2,2.5023503E2,6.019706E2,6.466865E1,1.6135457E2,8.888047E1,5.369305E2,6.504008E1,1.9202208E1,4.546644E1,6.777206E1,9.3582504E1,8.7751526E1,1.1289456E0],"tree_param":{"num_deleted":"0","num_feature":"8","num_nodes":"15","size_leaf_vector":"1"}},{"base_weights":[1.48302205E-2,-1.026222E0,1.4341877E0,-1.32525E0,-4.6599376E-1,8.9362943E-1,1.5570697E0,-3.803641E-2,-5.3404436E-2,-7.8044967E-3,-5.0890863E-2,3.490282E-2,-6.301069E-2,4.7318034E-2,5.463833E-2],"categories":[],"categories_nodes":[],"categories_segments":[],"categories_sizes":[],"default_left":[0,0,0,0,0,0,0,0,0,0,0,0,0,0,0],"id":10,"left_children":[1,3,5,7,9,11,13,-1,-1,-1,-1,-1,-1,-1,-1],"loss_changes":[1.3538682E3,8.8525085E1,2.5722412E1,1.703778E1,4.4475006E1,2.2909805E1,1.4680176E0,0E0,0E0,0E0,0E0,0E0,0E0,0E0,0E0],"parents":[2147483647,0,0,1,1,2,2,3,3,4,4,5,5,6,6],"right_children":[2,4,6,8,10,12,14,-1,-1,-1,-1,-1,-1,-1,-1],"split_conditions":[4E1,1.2E1,7.2E1,2.079059E4,3.34E2,3.94E2,9E1,-3.803641E-2,-5.3404436E-2,-7.8044967E-3,-5.0890863E-2,3.490282E-2,-6.301069E-2,4.7318034E-2,5.463833E-2],"split_indices":[0,0,0,2,5,5,0,0,0,0,0,0,0,0,0],"split_type":[0,0,0,0,0,0,0,0,0,0,0,0,0,0,0],"sum_hessian":[9.1623865E2,5.285543E2,3.8768436E2,3.4459863E2,1.8395567E2,7.18264E1,3.1585794E2,1.7159807E2,1.7300058E2,1.4860033E2,3.535535E1,6.8859795E1,2.9666016E0,3.811755E1,2.7774042E2],"tree_param":{"num_deleted":"0","num_feature":"8","num_nodes":"15","size_leaf_vector":"1"}},{"base_weights":[2.6926018E-2,-9.982069E-1,1.3836348E0,-1.2462755E0,-5.071165E-1,3.556412E-1,1.4669458E0,-2.9711299E-2,-4.892141E-2,-1.0276974E-2,-4.608038E-2,2.2416795E-2,-6.448841E-2,3.7753277E-2,5.2723415E-2],"categories":[],"categories_nodes":[],"categories_segments":[],"categories_sizes":[],"default_left":[0,0,0,0,0,0,0,0,0,0,0,0,0,0,0],"id":11,"left_children":[1,3,5,7,9,11,13,-1,-1,-1,-1,-1,-1,-1,-1],"loss_changes":[1.2726399E3,6.3474792E1,3.370807E1,2.2775452E1,3.0304733E1,1.9276657E1,8.157349E0,0E0,0E0,0E0,0E0,0E0,0E0,0E0,0E0],"parents":[2147483647,0,0,1,1,2,2,3,3,4,4,5,5,6,6],"right_children":[2,4,6,8,10,12,14,-1,-1,-1,-1,-1,-1,-1,-1],"split_conditions":[3.7E1,1.2E1,4.6E1,2.8E1,3.29E2,3.26E2,6.9E1,-2.9711299E-2,-4.892141E-2,-1.0276974E-2,-4.608038E-2,2.2416795E-2,-6.448841E-2,3.7753277E-2,5.2723415E-2],"split_indices":[0,0,0,4,5,5,0,0,0,0,0,0,0,0,0],"split_type":[0,0,0,0,0,0,0,0,0,0,0,0,0,0,0],"sum_hessian":[9.1502985E2,5.212013E2,3.9382858E2,3.462644E2,1.7493687E2,2.9534721E1,3.6429385E2,1.0627901E2,2.3998538E2,1.3961987E2,3.5317005E1,2.6094788E1,3.439933E0,5.0608646E1,3.136852E2],"tree_param":{"num_deleted":"0","num_feature":"8","num_nodes":"15","size_leaf_vector":"1"}},{"base_weights":[4.6928185E-3,-1.0006305E0,1.2987664E0,-1.2429414E0,-5.1644707E-1,6.2442225E-1,1.4905297E0,-3.1244667E-2,-4.868071E-2,-1.1216309E-2,-4.596666E-2,2.506542E-2,-4.583677E-2,4.5106273E-2,5.241349E-2],"categories":[],"categories_nodes":[],"categories_segments":[],"categories_sizes":[],"default_left":[0,0,0,0,0,0,0,0,0,0,0,0,0,0,0],"id":12,"left_children":[1,3,5,7,9,11,13,-1,-1,-1,-1,-1,-1,-1,-1],"loss_changes":[1.1835282E3,6.004657E1,5.1409912E1,1.9240112E1,2.664397E1,1.7465748E1,1.5401001E0,0E0,0E0,0E0,0E0,0E0,0E0,0E0,0E0],"parents":[2147483647,0,0,1,1,2,2,3,3,4,4,5,5,6,6],"right_children":[2,4,6,8,10,12,14,-1,-1,-1,-1,-1,-1,-1,-1],"split_conditions":[3.5E1,1.2E1,6.9E1,1.3E1,3.34E2,3.94E2,9E1,-3.1244667E-2,-4.868071E-2,-1.1216309E-2,-4.596666E-2,2.506542E-2,-4.583677E-2,4.5106273E-2,5.241349E-2],"split_indices":[0,0,0,1,5,5,0,0,0,0,0,0,0,0,0],"split_type":[0,0,0,0,0,0,0,0,0,0,0,0,0,0,0],"sum_hessian":[9.097261E2,5.119787E2,3.9774738E2,3.4119897E2,1.7077971E2,8.807914E1,3.0966824E2,1.12922676E2,2.282763E2,1.3829076E2,3.2488953E1,8.372811E1,4.3510284E0,4.0506077E1,2.6916217E2],"tree_param":{"num_deleted":"0","num_feature":"8","num_nodes":"15","size_leaf_vector":"1"}},{"base_weights":[-2.988213E-2,-9.805399E-1,1.3234245E0,-1.2266686E0,-4.9488375E-1,6.9640064E-1,1.4667126E0,-3.5350148E-2,-5.1415075E-2,-9.9065965E-3,-4.8014127E-2,2.8091857E-2,-4.3711215E-2,5.0847195E-2,2.9409843E-2],"categories":[],"categories_nodes":[],"categories_segments":[],"categories_sizes":[],"default_left":[0,0,0,0,0,0,0,0,0,0,0,0,0,0,0],"id":13,"left_children":[1,3,5,7,9,11,13,-1,-1,-1,-1,-1,-1,-1,-1],"loss_changes":[1.1511029E3,6.280182E1,3.314331E1,1.8536987E1,3.2912598E1,1.58083725E1,1.097229E0,0E0,0E0,0E0,0E0,0E0,0E0,0E0,0E0],"parents":[2147483647,0,0,1,1,2,2,3,3,4,4,5,5,6,6],"right_children":[2,4,6,8,10,12,14,-1,-1,-1,-1,-1,-1,-1,-1],"split_conditions":[4E1,1.3E1,6.9E1,2.408183E4,3.34E2,3.94E2,9.794118E0,-3.5350148E-2,-5.1415075E-2,-9.9065965E-3,-4.8014127E-2,2.8091857E-2,-4.3711215E-2,5.0847195E-2,2.9409843E-2],"split_indices":[0,0,0,2,5,5,3,0,0,0,0,0,0,0,0],"split_type":[0,0,0,0,0,0,0,0,0,0,0,0,0,0,0],"sum_hessian":[8.947322E2,5.2555444E2,3.691778E2,3.4877228E2,1.7678215E2,6.868841E1,3.0048938E2,1.968415E2,1.5193076E2,1.434915E2,3.3290646E1,6.482122E1,3.867184E0,2.9752182E2,2.9675794E0],"tree_param":{"num_deleted":"0","num_feature":"8","num_nodes":"15","size_leaf_vector":"1"}},{"base_weights":[9.651856E-3,-8.610857E-1,1.3413576E0,-1.0823802E0,-6.1022907E-2,8.314341E-1,1.43803E0,-2.834303E-2,-4.7571603E-2,2.7979198E-3,-4.835074E-2,3.156083E-2,-6.045365E-3,4.1090555E-2,5.0761566E-2],"categories":[],"categories_nodes":[],"categories_segments":[],"categories_sizes":[],"default_left":[0,0,0,0,0,0,0,0,0,0,0,0,0,0,0],"id":14,"left_children":[1,3,5,7,9,11,13,-1,-1,-1,-1,-1,-1,-1,-1],"loss_changes":[1.02088184E3,9.423532E1,1.7131042E1,3.2189453E1,2.1964836E1,4.629673E0,2.308838E0,0E0,0E0,0E0,0E0,0E0,0E0,0E0,0E0],"parents":[2147483647,0,0,1,1,2,2,3,3,4,4,5,5,6,6],"right_children":[2,4,6,8,10,12,14,-1,-1,-1,-1,-1,-1,-1,-1],"split_conditions":[4.5E1,2.1E1,7.2E1,2.079059E4,6.75E0,5.027933E0,9E1,-2.834303E-2,-4.7571603E-2,2.7979198E-3,-4.835074E-2,3.156083E-2,-6.045365E-3,4.1090555E-2,5.0761566E-2],"split_indices":[0,0,0,2,7,7,0,0,0,0,0,0,0,0,0],"split_type":[0,0,0,0,0,0,0,0,0,0,0,0,0,0,0],"sum_hessian":[8.803909E2,5.323233E2,3.480677E2,4.1697513E2,1.1534814E2,5.5492344E1,2.9257532E2,2.2128632E2,1.9568883E2,1.04281845E2,1.1066297E1,5.1287666E1,4.204677E0,3.3776016E1,2.5879932E2],"tree_param":{"num_deleted":"0","num_feature":"8","num_nodes":"15","size_leaf_vector":"1"}},{"base_weights":[1.832475E-2,-9.032673E-1,1.360894E0,-1.1073301E0,-4.3943115E-2,1.0868889E0,1.4478409E0,-2.3613404E-2,-4.4095095E-2,-5.7835568E-2,3.1583621E-3,3.864425E-2,-6.854822E-3,4.3777384E-2,5.008516E-2],"categories":[],"categories_nodes":[],"categories_segments":[],"categories_sizes":[],"default_left":[0,0,0,0,0,0,0,0,0,0,0,0,0,0,0],"id":15,"left_children":[1,3,5,7,9,11,13,-1,-1,-1,-1,-1,-1,-1,-1],"loss_changes":[1.0837E3,9.105783E1,8.462524E0,3.0162964E1,2.2037348E1,3.5944748E0,1.071167E-1,0E0,0E0,0E0,0E0,0E0,0E0,0E0,0E0],"parents":[2147483647,0,0,1,1,2,2,3,3,4,4,5,5,6,6],"right_children":[2,4,6,8,10,12,14,-1,-1,-1,-1,-1,-1,-1,-1],"split_conditions":[4.5E1,2.2E1,8.8E1,2.7692308E0,3E0,3.94E2,9E1,-2.3613404E-2,-4.4095095E-2,-5.7835568E-2,3.1583621E-3,3.864425E-2,-6.854822E-3,4.3777384E-2,5.008516E-2],"split_indices":[0,0,0,7,1,5,0,0,0,0,0,0,0,0,0],"split_type":[0,0,0,0,0,0,0,0,0,0,0,0,0,0,0],"sum_hessian":[8.758495E2,5.1934406E2,3.5650543E2,4.196718E2,9.967224E1,8.591294E1,2.705925E2,1.202064E2,2.994654E2,7.6445765E0,9.2027664E1,8.38059E1,2.1070437E0,4.3536367E0,2.6623886E2],"tree_param":{"num_deleted":"0","num_feature":"8","num_nodes":"15","size_leaf_vector":"1"}},{"base_weights":[-4.608588E-3,-8.5096115E-1,1.3007036E0,-1.0951214E0,-1.894709E-1,7.8273225E-1,1.3950803E0,-2.7008293E-2,-4.507833E-2,-6.1876155E-5,-3.8404353E-2,2.9589275E-2,-3.145256E-2,4.1993845E-2,4.889896E-2],"categories":[],"categories_nodes":[],"categories_segments":[],"categories_sizes":[],"default_left":[0,0,0,0,0,0,0,0,0,0,0,0,0,0,0],"id":16,"left_children":[1,3,5,7,9,11,13,-1,-1,-1,-1,-1,-1,-1,-1],"loss_changes":[9.423739E2,8.356561E1,1.637616E1,2.4873505E1,2.4156048E1,6.514366E0,1.0476074E0,0E0,0E0,0E0,0E0,0E0,0E0,0E0,0E0],"parents":[2147483647,0,0,1,1,2,2,3,3,4,4,5,5,6,6],"right_children":[2,4,6,8,10,12,14,-1,-1,-1,-1,-1,-1,-1,-1],"split_conditions":[4.5E1,1.7E1,7.2E1,3.3898306E0,3.29E2,3.94E2,9E1,-2.7008293E-2,-4.507833E-2,-6.1876155E-5,-3.8404353E-2,2.9589275E-2,-3.145256E-2,4.1993845E-2,4.889896E-2],"split_indices":[0,0,0,7,5,5,0,0,0,0,0,0,0,0,0],"split_type":[0,0,0,0,0,0,0,0,0,0,0,0,0,0,0],"sum_hessian":[8.530168E2,5.1749005E2,3.3552673E2,3.7796347E2,1.3952657E2,5.173308E1,2.8379367E2,1.520935E2,2.2586996E2,1.1595976E2,2.3566803E1,4.9565434E1,2.167648E0,3.0277994E1,2.5351567E2],"tree_param":{"num_deleted":"0","num_feature":"8","num_nodes":"15","size_leaf_vector":"1"}},{"base_weights":[4.787259E-3,-9.1505873E-1,1.1347513E0,-5.379564E-1,-1.1762228E0,4.5990524E-1,1.3567312E0,-6.5853265E-3,-3.815224E-2,-4.1910578E-2,4.864088E-3,1.9112002E-2,-7.486378E-2,3.761536E-2,4.8115496E-2],"categories":[],"categories_nodes":[],"categories_segments":[],"categories_sizes":[],"default_left":[0,0,0,0,0,0,0,0,0,0,0,0,0,0,0],"id":17,"left_children":[1,3,5,7,9,11,13,-1,-1,-1,-1,-1,-1,-1,-1],"loss_changes":[8.6804846E2,4.532007E1,5.6121094E1,3.70832E1,1.3527252E1,2.2829195E1,2.753601E0,0E0,0E0,0E0,0E0,0E0,0E0,0E0,0E0],"parents":[2147483647,0,0,1,1,2,2,3,3,4,4,5,5,6,6],"right_children":[2,4,6,8,10,12,14,-1,-1,-1,-1,-1,-1,-1,-1],"split_conditions":[3E1,3.2110093E0,6E1,1.8E1,2.7E1,9E0,8.4E1,-6.5853265E-3,-3.815224E-2,-4.1910578E-2,4.864088E-3,1.9112002E-2,-7.486378E-2,3.761536E-2,4.8115496E-2],"split_indices":[0,7,0,1,0,3,0,0,0,0,0,0,0,0,0],"split_type":[0,0,0,0,0,0,0,0,0,0,0,0,0,0,0],"sum_hessian":[8.351428E2,4.6036996E2,3.7477286E2,1.8839264E2,2.7197733E2,9.277649E1,2.8199637E2,1.1686658E2,7.152607E1,2.6441177E2,7.5655727E0,8.958922E1,3.1872685E0,3.430092E1,2.4769547E2],"tree_param":{"num_deleted":"0","num_feature":"8","num_nodes":"15","size_leaf_vector":"1"}},{"base_weights":[1.2273212E-3,-8.37893E-1,1.2501293E0,-1.0002812E0,-1.7271309E-1,7.549681E-1,1.3456272E0,-2.528924E-2,-4.475549E-2,3.1810312E-4,-3.0682258E-2,2.8810555E-2,-2.7782964E-2,4.2513046E-2,4.771628E-2],"categories":[],"categories_nodes":[],"categories_segments":[],"categories_sizes":[],"default_left":[0,0,0,0,0,0,0,0,0,0,0,0,0,0,0],"id":18,"left_children":[1,3,5,7,9,11,13,-1,-1,-1,-1,-1,-1,-1,-1],"loss_changes":[8.8309064E2,5.442874E1,1.5988464E1,3.2092102E1,1.2894238E1,6.7969894E0,1.151123E0,0E0,0E0,0E0,0E0,0E0,0E0,0E0,0E0],"parents":[2147483647,0,0,1,1,2,2,3,3,4,4,5,5,6,6],"right_children":[2,4,6,8,10,12,14,-1,-1,-1,-1,-1,-1,-1,-1],"split_conditions":[4E1,2.1E1,6E1,4.6E1,4.664311E0,1.2857142E1,1.03E2,-2.528924E-2,-4.475549E-2,3.1810312E-4,-3.0682258E-2,2.8810555E-2,-2.7782964E-2,4.2513046E-2,4.771628E-2],"split_indices":[0,0,0,4,7,7,0,0,0,0,0,0,0,0,0],"split_type":[0,0,0,0,0,0,0,0,0,0,0,0,0,0,0],"sum_hessian":[8.42652E2,5.040079E2,3.3864404E2,4.0509576E2,9.891213E1,5.4773525E1,2.838705E2,2.1273788E2,1.923579E2,7.8861534E1,2.0050598E1,5.212346E1,2.6500673E0,6.881534E1,2.1505519E2],"tree_param":{"num_deleted":"0","num_feature":"8","num_nodes":"15","size_leaf_vector":"1"}},{"base_weights":[1.7316058E-2,-7.6363134E-1,1.2369409E0,-9.6380097E-1,-3.9452333E-3,7.453119E-1,1.3330814E0,-2.278957E-2,-4.3834884E-2,7.586518E-3,-3.9944123E-2,2.8162552E-2,-5.9286613E-2,3.9284334E-2,4.7008604E-2],"categories":[],"categories_nodes":[],"categories_segments":[],"categories_sizes":[],"default_left":[0,0,0,0,0,0,0,0,0,0,0,0,0,0,0],"id":19,"left_children":[1,3,5,7,9,11,13,-1,-1,-1,-1,-1,-1,-1,-1],"loss_changes":[7.870742E2,7.6595825E1,1.52222595E1,3.701529E1,2.7111097E1,9.14786E0,1.47229E0,0E0,0E0,0E0,0E0,0E0,0E0,0E0,0E0],"parents":[2147483647,0,0,1,1,2,2,3,3,4,4,5,5,6,6],"right_children":[2,4,6,8,10,12,14,-1,-1,-1,-1,-1,-1,-1,-1],"split_conditions":[4.5E1,2.2E1,6.9E1,2E1,3.26E2,4.23E2,9E1,-2.278957E-2,-4.3834884E-2,7.586518E-3,-3.9944123E-2,2.8162552E-2,-5.9286613E-2,3.9284334E-2,4.7008604E-2],"split_indices":[0,0,0,1,5,5,0,0,0,0,0,0,0,0,0],"split_type":[0,0,0,0,0,0,0,0,0,0,0,0,0,0,0],"sum_hessian":[8.2634717E2,5.037677E2,3.225795E2,3.9869952E2,1.0506817E2,5.278535E1,2.6979413E2,2.0008826E2,1.9861128E2,8.79904E1,1.7077766E1,5.132347E1,1.4618801E0,3.4469666E1,2.3532448E2],"tree_param":{"num_deleted":"0","num_feature":"8","num_nodes":"15","size_leaf_vector":"1"}},{"base_weights":[-4.2202678E-2,-7.994015E-1,1.2107792E0,-9.6921325E-1,-1.2140272E-1,7.96823E-1,1.3232121E0,-1.9796226E-2,-4.0642884E-2,2.0642271E-3,-3.8290624E-2,-1.3345807E-3,3.0840665E-2,3.7437834E-2,4.6376742E-2],"categories":[],"categories_nodes":[],"categories_segments":[],"categories_sizes":[],"default_left":[0,0,0,0,0,0,0,0,0,0,0,0,0,0,0],"id":20,"left_children":[1,3,5,7,9,11,13,-1,-1,-1,-1,-1,-1,-1,-1],"loss_changes":[7.718358E2,5.8370575E1,1.4236908E1,3.3367706E1,1.8191248E1,5.2876816E0,1.1273193E0,0E0,0E0,0E0,0E0,0E0,0E0,0E0,0E0],"parents":[2147483647,0,0,1,1,2,2,3,3,4,4,5,5,6,6],"right_children":[2,4,6,8,10,12,14,-1,-1,-1,-1,-1,-1,-1,-1],"split_conditions":[4.5E1,2.2E1,8E1,1.2E1,3.26E2,4E0,9E1,-1.9796226E-2,-4.0642884E-2,2.0642271E-3,-3.8290624E-2,-1.3345807E-3,3.0840665E-2,3.7437834E-2,4.6376742E-2],"split_indices":[0,0,0,1,5,1,0,0,0,0,0,0,0,0,0],"split_type":[0,0,0,0,0,0,0,0,0,0,0,0,0,0,0],"sum_hessian":[8.13524E2,5.0709003E2,3.0643396E2,4.055092E2,1.0158085E2,6.547651E1,2.4095744E2,1.397185E2,2.6579068E2,8.582688E1,1.5753967E1,6.767192E0,5.870932E1,1.8759335E1,2.221981E2],"tree_param":{"num_deleted":"0","num_feature":"8","num_nodes":"15","size_leaf_vector":"1"}},{"base_weights":[2.6497675E-2,-8.0756885E-1,1.088396E0,-4.418947E-1,-1.0728865E0,6.0298E-1,1.3221424E0,-3.3746844E-3,-4.0331393E-2,-3.8981125E-2,-1.8784764E-3,-2.5000323E-2,2.4185611E-2,3.8897283E-2,4.5983262E-2],"categories":[],"categories_nodes":[],"categories_segments":[],"categories_sizes":[],"default_left":[0,0,0,0,0,0,0,0,0,0,0,0,0,0,0],"id":21,"left_children":[1,3,5,7,9,11,13,-1,-1,-1,-1,-1,-1,-1,-1],"loss_changes":[7.1443243E2,4.381372E1,4.0240906E1,4.7473667E1,1.4975067E1,1.4936951E1,4.2770386E-1,0E0,0E0,0E0,0E0,0E0,0E0,0E0,0E0],"parents":[2147483647,0,0,1,1,2,2,3,3,4,4,5,5,6,6],"right_children":[2,4,6,8,10,12,14,-1,-1,-1,-1,-1,-1,-1,-1],"split_conditions":[3.4E1,3.2110093E0,8.4E1,2.83E2,2.7E1,1.1E1,9E1,-3.3746844E-3,-4.0331393E-2,-3.8981125E-2,-1.8784764E-3,-2.5000323E-2,2.4185611E-2,3.8897283E-2,4.5983262E-2],"split_indices":[0,7,0,5,0,5,0,0,0,0,0,0,0,0,0],"split_type":[0,0,0,0,0,0,0,0,0,0,0,0,0,0,0],"sum_hessian":[8.066281E2,4.5177353E2,3.548546E2,1.8998006E2,2.6179346E2,1.1535457E2,2.3950005E2,1.2891455E2,6.1065517E1,2.4808986E2,1.3703613E1,7.890937E0,1.0746363E2,1.1471432E1,2.2802861E2],"tree_param":{"num_deleted":"0","num_feature":"8","num_nodes":"15","size_leaf_vector":"1"}},{"base_weights":[-3.83638E-4,3.112373E-1,-7.420884E-1,5.254909E-1,-7.188742E-1,-5.547612E-1,-1.2832404E0,-6.3300885E-2,1.8646773E-2,-9.858166E-3,-4.0240213E-2,-7.81345E-3,-3.0328415E-2,-2.182862E-2,-4.487396E-2],"categories":[],"categories_nodes":[],"categories_segments":[],"categories_sizes":[],"default_left":[0,0,0,0,0,0,0,0,0,0,0,0,0,0,0],"id":22,"left_children":[1,3,5,7,9,11,13,-1,-1,-1,-1,-1,-1,-1,-1],"loss_changes":[1.8162846E2,1.2211897E2,2.354628E1,1.5783775E1,1.8423035E1,1.8351364E1,6.209793E-1,0E0,0E0,0E0,0E0,0E0,0E0,0E0,0E0],"parents":[2147483647,0,0,1,1,2,2,3,3,4,4,5,5,6,6],"right_children":[2,4,6,8,10,12,14,-1,-1,-1,-1,-1,-1,-1,-1],"split_conditions":[4.0740743E0,3.34E2,7.8E1,2.2E1,3.96E2,5.4261956E0,4.1346154E0,-6.3300885E-2,1.8646773E-2,-9.858166E-3,-4.0240213E-2,-7.81345E-3,-3.0328415E-2,-2.182862E-2,-4.487396E-2],"split_indices":[7,5,4,5,5,7,7,0,0,0,0,0,0,0,0],"split_type":[0,0,0,0,0,0,0,0,0,0,0,0,0,0,0],"sum_hessian":[7.8580115E2,5.533165E2,2.3248462E2,4.5805664E2,9.5259895E1,1.7271976E2,5.9764866E1,2.8146818E0,4.5524194E2,4.8367428E1,4.689247E1,8.57516E1,8.6968155E1,1.4997897E0,5.8265076E1],"tree_param":{"num_deleted":"0","num_feature":"8","num_nodes":"15","size_leaf_vector":"1"}},{"base_weights":[-1.0614569E-2,-7.9056394E-1,1.1085724E0,-5.0039124E-1,-1.1004932E0,5.255653E-1,1.2517601E0,-8.491866E-3,-4.242843E-2,-1.3079451E-2,-3.9520252E-2,2.301642E-2,-5.5901848E-2,3.525219E-2,4.4971522E-2],"categories":[],"categories_nodes":[],"categories_segments":[],"categories_sizes":[],"default_left":[0,0,0,0,0,0,0,0,0,0,0,0,0,0,0],"id":23,"left_children":[1,3,5,7,9,11,13,-1,-1,-1,-1,-1,-1,-1,-1],"loss_changes":[6.9746906E2,4.232907E1,2.7372345E1,4.5065697E1,7.247925E0,1.95797E1,3.0618591E0,0E0,0E0,0E0,0E0,0E0,0E0,0E0,0E0],"parents":[2147483647,0,0,1,1,2,2,3,3,4,4,5,5,6,6],"right_children":[2,4,6,8,10,12,14,-1,-1,-1,-1,-1,-1,-1,-1],"split_conditions":[3.6E1,3.6764705E0,5.8E1,3.29E2,6.090909E0,3.94E2,9E1,-8.491866E-3,-4.242843E-2,-1.3079451E-2,-3.9520252E-2,2.301642E-2,-5.5901848E-2,3.525219E-2,4.4971522E-2],"split_indices":[0,7,0,5,3,5,0,0,0,0,0,0,0,0,0],"split_type":[0,0,0,0,0,0,0,0,0,0,0,0,0,0,0],"sum_hessian":[7.9901636E2,4.7087735E2,3.28139E2,2.4321083E2,2.2766652E2,6.4717865E1,2.6342117E2,1.8027452E2,6.293631E1,1.3160963E1,2.1450555E2,6.072888E1,3.988983E0,4.762911E1,2.1579205E2],"tree_param":{"num_deleted":"0","num_feature":"8","num_nodes":"15","size_leaf_vector":"1"}},{"base_weights":[1.203846E-3,-8.5873634E-1,9.83577E-1,-5.397649E-1,-1.1138932E0,3.5754287E-1,1.2311443E0,-4.9613426E-3,-3.311554E-2,-4.346884E-2,-2.8772857E-2,1.7360693E-2,-4.539064E-2,3.3682197E-2,4.464026E-2],"categories":[],"categories_nodes":[],"categories_segments":[],"categories_sizes":[],"default_left":[0,0,0,0,0,0,0,0,0,0,0,0,0,0,0],"id":24,"left_children":[1,3,5,7,9,11,13,-1,-1,-1,-1,-1,-1,-1,-1],"loss_changes":[6.548687E2,3.362216E1,5.6062256E1,3.0508308E1,9.326202E0,2.4914871E1,4.0721436E0,0E0,0E0,0E0,0E0,0E0,0E0,0E0,0E0],"parents":[2147483647,0,0,1,1,2,2,3,3,4,4,5,5,6,6],"right_children":[2,4,6,8,10,12,14,-1,-1,-1,-1,-1,-1,-1,-1],"split_conditions":[2.7E1,1.419828E4,5.6E1,3.2110093E0,9E0,3.82E2,9E1,-4.9613426E-3,-3.311554E-2,-4.346884E-2,-2.8772857E-2,1.7360693E-2,-4.539064E-2,3.3682197E-2,4.464026E-2],"split_indices":[0,2,0,7,0,5,0,0,0,0,0,0,0,0,0],"split_type":[0,0,0,0,0,0,0,0,0,0,0,0,0,0,0],"sum_hessian":[7.7518646E2,4.1334543E2,3.6184103E2,1.8372284E2,2.2962257E2,1.0255498E2,2.5928607E2,9.4509575E1,8.921327E1,1.5126979E2,7.835278E1,9.436328E1,8.191702E0,5.058513E1,2.0870093E2],"tree_param":{"num_deleted":"0","num_feature":"8","num_nodes":"15","size_leaf_vector":"1"}},{"base_weights":[5.736178E-3,-7.112886E-1,1.1581876E0,-1.0788245E0,-4.149408E-1,6.210244E-1,1.2389445E0,-2.4641724E-2,-4.3070484E-2,-9.015112E-3,-3.8942885E-2,-1.3867361E-2,2.5514515E-2,3.6409963E-2,4.4178985E-2],"categories":[],"categories_nodes":[],"categories_segments":[],"categories_sizes":[],"default_left":[0,0,0,0,0,0,0,0,0,0,0,0,0,0,0],"id":25,"left_children":[1,3,5,7,9,11,13,-1,-1,-1,-1,-1,-1,-1,-1],"loss_changes":[6.3838934E2,5.1853775E1,1.2832062E1,1.3070068E1,2.8903343E1,4.6806717E0,1.9044495E0,0E0,0E0,0E0,0E0,0E0,0E0,0E0,0E0],"parents":[2147483647,0,0,1,1,2,2,3,3,4,4,5,5,6,6],"right_children":[2,4,6,8,10,12,14,-1,-1,-1,-1,-1,-1,-1,-1],"split_conditions":[4.5E1,7E0,6E1,1.2E1,6.5E1,4E0,9E1,-2.4641724E-2,-4.3070484E-2,-9.015112E-3,-3.8942885E-2,-1.3867361E-2,2.5514515E-2,3.6409963E-2,4.4178985E-2],"split_indices":[0,0,0,1,4,1,0,0,0,0,0,0,0,0,0],"split_type":[0,0,0,0,0,0,0,0,0,0,0,0,0,0,0],"sum_hessian":[7.7254376E2,4.762346E2,2.9630914E2,2.1256512E2,2.6366946E2,3.874514E1,2.57564E2,6.7212326E1,1.4535278E2,2.1689923E2,4.6770237E1,3.998275E0,3.4746864E1,4.66559E1,2.109081E2],"tree_param":{"num_deleted":"0","num_feature":"8","num_nodes":"15","size_leaf_vector":"1"}},{"base_weights":[-2.9422525E-2,-7.499905E-1,1.0942987E0,-5.23365E-1,-1.1361765E0,6.1761516E-1,1.2461522E0,-2.799492E-2,-1.1587271E-2,-4.1907992E-2,-1.7021984E-2,-1.1230386E-2,2.577426E-2,3.8248293E-2,4.4015963E-2],"categories":[],"categories_nodes":[],"categories_segments":[],"categories_sizes":[],"default_left":[0,0,0,0,0,0,0,0,0,0,0,0,0,0,0],"id":26,"left_children":[1,3,5,7,9,11,13,-1,-1,-1,-1,-1,-1,-1,-1],"loss_changes":[6.06342E2,3.991324E1,2.1155762E1,1.5508484E1,8.411041E0,8.601509E0,8.5406494E-1,0E0,0E0,0E0,0E0,0E0,0E0,0E0,0E0],"parents":[2147483647,0,0,1,1,2,2,3,3,4,4,5,5,6,6],"right_children":[2,4,6,8,10,12,14,-1,-1,-1,-1,-1,-1,-1,-1],"split_conditions":[4E1,2.216666E4,7.7E1,7E0,2.1E1,4E0,1.03E2,-2.799492E-2,-1.1587271E-2,-4.1907992E-2,-1.7021984E-2,-1.1230386E-2,2.577426E-2,3.8248293E-2,4.4015963E-2],"split_indices":[0,2,0,0,0,1,0,0,0,0,0,0,0,0,0],"split_type":[0,0,0,0,0,0,0,0,0,0,0,0,0,0,0],"sum_hessian":[7.4883167E2,4.562678E2,2.925639E2,2.8755505E2,1.6871272E2,7.070283E1,2.2186108E2,1.1356588E2,1.7398918E2,1.5051004E2,1.8202673E1,8.495006E0,6.220782E1,3.8302803E1,1.8355827E2],"tree_param":{"num_deleted":"0","num_feature":"8","num_nodes":"15","size_leaf_vector":"1"}},{"base_weights":[-8.080548E-3,2.36694E-1,-7.8992736E-1,3.9083856E-1,-1.0514985E0,-6.2025505E-1,-1.2256851E0,1.6732842E-2,1.6312372E-3,1.3831856E-2,-3.8073752E-2,-2.2476327E-2,8.274666E-2,-2.8882084E-2,-4.371592E-2],"categories":[],"categories_nodes":[],"categories_segments":[],"categories_sizes":[],"default_left":[0,0,0,0,0,0,0,0,0,0,0,0,0,0,0],"id":27,"left_children":[1,3,5,7,9,11,13,-1,-1,-1,-1,-1,-1,-1,-1],"loss_changes":[1.4398726E2,1.1376442E2,1.3241737E1,1.6492386E1,4.571167E0,1.1975952E1,7.679672E-1,0E0,0E0,0E0,0E0,0E0,0E0,0E0,0E0],"parents":[2147483647,0,0,1,1,2,2,3,3,4,4,5,5,6,6],"right_children":[2,4,6,8,10,12,14,-1,-1,-1,-1,-1,-1,-1,-1],"split_conditions":[4.5E0,3.82E2,7.4E1,2.7E2,3.7E1,4.039772E4,4.664311E0,1.6732842E-2,1.6312372E-3,1.3831856E-2,-3.8073752E-2,-2.2476327E-2,8.274666E-2,-2.8882084E-2,-4.371592E-2],"split_indices":[7,5,4,5,4,2,7,0,0,0,0,0,0,0,0],"split_type":[0,0,0,0,0,0,0,0,0,0,0,0,0,0,0],"sum_hessian":[7.5234235E2,5.72954E2,1.7938835E2,5.1173047E2,6.122351E1,1.291363E2,5.025204E1,4.0193216E2,1.097983E2,2.0820305E0,5.914148E1,1.27837494E2,1.2988156E0,4.7732205E0,4.547882E1],"tree_param":{"num_deleted":"0","num_feature":"8","num_nodes":"15","size_leaf_vector":"1"}},{"base_weights":[1.0188098E-2,-8.0205685E-1,9.0879166E-1,-4.0463904E-1,-1.0833924E0,3.5875422E-1,1.1982198E0,1.73189E-3,-2.8559279E-2,-4.1396953E-2,-3.1680312E-2,1.640978E-2,-3.6572196E-2,3.0429292E-2,4.304897E-2],"categories":[],"categories_nodes":[],"categories_segments":[],"categories_sizes":[],"default_left":[0,0,0,0,0,0,0,0,0,0,0,0,0,0,0],"id":28,"left_children":[1,3,5,7,9,11,13,-1,-1,-1,-1,-1,-1,-1,-1],"loss_changes":[5.4177893E2,4.3572937E1,5.6084686E1,3.1069979E1,4.351593E0,2.0080685E1,3.5374756E0,0E0,0E0,0E0,0E0,0E0,0E0,0E0,0E0],"parents":[2147483647,0,0,1,1,2,2,3,3,4,4,5,5,6,6],"right_children":[2,4,6,8,10,12,14,-1,-1,-1,-1,-1,-1,-1,-1],"split_conditions":[2.6E1,3.2110093E0,6.9E1,1.82E2,7E0,3.84E2,9E1,1.73189E-3,-2.8559279E-2,-4.1396953E-2,-3.1680312E-2,1.640978E-2,-3.6572196E-2,3.0429292E-2,4.304897E-2],"split_indices":[0,7,0,5,0,5,0,0,0,0,0,0,0,0,0],"split_type":[0,0,0,0,0,0,0,0,0,0,0,0,0,0,0],"sum_hessian":[7.422727E2,3.89864E2,3.524087E2,1.616124E2,2.2825162E2,1.21516884E2,2.308918E2,7.782775E1,8.378464E1,1.3438757E2,9.386405E1,1.12295784E2,9.2211E0,3.0800264E1,2.0009154E2],"tree_param":{"num_deleted":"0","num_feature":"8","num_nodes":"15","size_leaf_vector":"1"}},{"base_weights":[-4.8623024E-3,-6.817072E-1,1.1140412E0,-9.4995326E-1,-2.4786587E-1,7.2753024E-1,1.2277956E0,-2.6097914E-2,-4.2680573E-2,1.3640411E-4,-2.5684718E-2,2.665926E-2,-5.525881E-2,4.2676065E-2,3.5193972E-2],"categories":[],"categories_nodes":[],"categories_segments":[],"categories_sizes":[],"default_left":[0,0,0,0,0,0,0,0,0,0,0,0,0,0,0],"id":29,"left_children":[1,3,5,7,9,11,13,-1,-1,-1,-1,-1,-1,-1,-1],"loss_changes":[5.5521655E2,5.3148514E1,1.2126038E1,1.5655457E1,2.181415E1,6.529808E0,3.4326172E-1,0E0,0E0,0E0,0E0,0E0,0E0,0E0,0E0],"parents":[2147483647,0,0,1,1,2,2,3,3,4,4,5,5,6,6],"right_children":[2,4,6,8,10,12,14,-1,-1,-1,-1,-1,-1,-1,-1],"split_conditions":[4.5E1,1.3E1,8E1,5.2E1,3.7190082E0,4.23E2,1.2802465E3,-2.6097914E-2,-4.2680573E-2,1.3640411E-4,-2.5684718E-2,2.665926E-2,-5.525881E-2,4.2676065E-2,3.5193972E-2],"split_indices":[0,0,0,4,7,5,6,0,0,0,0,0,0,0,0],"split_type":[0,0,0,0,0,0,0,0,0,0,0,0,0,0,0],"sum_hessian":[7.3313116E2,4.5680942E2,2.7632172E2,2.822595E2,1.7454993E2,6.2857628E1,2.134641E2,1.6827133E2,1.1398817E2,1.1576738E2,5.8782555E1,6.1680466E1,1.1771604E0,2.0520074E2,8.2633505E0],"tree_param":{"num_deleted":"0","num_feature":"8","num_nodes":"15","size_leaf_vector":"1"}},{"base_weights":[-7.7321177E-4,-7.3361975E-1,1.0037594E0,-3.62607E-1,-1.0568732E0,5.665349E-1,1.2077417E0,-4.132153E-3,-3.3779338E-2,-3.866703E-2,2.1698952E-3,-8.22679E-3,2.4007598E-2,3.4788936E-2,4.242814E-2],"categories":[],"categories_nodes":[],"categories_segments":[],"categories_sizes":[],"default_left":[0,0,0,0,0,0,0,0,0,0,0,0,0,0,0],"id":30,"left_children":[1,3,5,7,9,11,13,-1,-1,-1,-1,-1,-1,-1,-1],"loss_changes":[5.402831E2,5.0876358E1,2.758847E1,2.9547205E1,1.6039871E1,1.0220253E1,8.6831665E-1,0E0,0E0,0E0,0E0,0E0,0E0,0E0,0E0],"parents":[2147483647,0,0,1,1,2,2,3,3,4,4,5,5,6,6],"right_children":[2,4,6,8,10,12,14,-1,-1,-1,-1,-1,-1,-1,-1],"split_conditions":[3.4E1,3.3898306E0,7.7E1,1.910569E4,2.8E1,4E0,9E1,-4.132153E-3,-3.3779338E-2,-3.866703E-2,2.1698952E-3,-8.22679E-3,2.4007598E-2,3.4788936E-2,4.242814E-2],"split_indices":[0,7,0,2,0,1,0,0,0,0,0,0,0,0,0],"split_type":[0,0,0,0,0,0,0,0,0,0,0,0,0,0,0],"sum_hessian":[7.339122E2,4.2434613E2,3.0956604E2,1.9759525E2,2.267509E2,9.84995E1,2.1106653E2,1.4171445E2,5.5880806E1,2.1465858E2,1.2092314E1,1.3581488E1,8.491801E1,2.0282084E1,1.9078445E2],"tree_param":{"num_deleted":"0","num_feature":"8","num_nodes":"15","size_leaf_vector":"1"}},{"base_weights":[-4.0710145E-3,-5.993105E-1,1.0551171E0,-8.8618016E-1,-1.845059E-1,5.630663E-1,1.1794883E0,-1.8160496E-2,-3.6968738E-2,7.6450215E-4,-2.7677197E-2,2.2001207E-2,-2.555751E-2,3.1906445E-2,4.2045124E-2],"categories":[],"categories_nodes":[],"categories_segments":[],"categories_sizes":[],"default_left":[0,0,0,0,0,0,0,0,0,0,0,0,0,0,0],"id":31,"left_children":[1,3,5,7,9,11,13,-1,-1,-1,-1,-1,-1,-1,-1],"loss_changes":[4.4815765E2,5.414203E1,1.563031E1,1.787004E1,2.374054E1,4.9924145E0,1.9734192E0,0E0,0E0,0E0,0E0,0E0,0E0,0E0,0E0],"parents":[2147483647,0,0,1,1,2,2,3,3,4,4,5,5,6,6],"right_children":[2,4,6,8,10,12,14,-1,-1,-1,-1,-1,-1,-1,-1],"split_conditions":[4.5E1,1.2E1,7.2E1,3.0769231E0,4.233129E0,8.625E0,9E1,-1.8160496E-2,-3.6968738E-2,7.6450215E-4,-2.7677197E-2,2.2001207E-2,-2.555751E-2,3.1906445E-2,4.2045124E-2],"split_indices":[0,0,0,7,7,3,0,0,0,0,0,0,0,0,0],"split_type":[0,0,0,0,0,0,0,0,0,0,0,0,0,0,0],"sum_hessian":[7.1083386E2,4.5509314E2,2.5574075E2,2.6901776E2,1.8607535E2,5.1619076E1,2.0412167E2,9.1193565E1,1.778242E2,1.3938803E2,4.6687317E1,4.884744E1,2.771636E0,2.6707039E1,1.7741463E2],"tree_param":{"num_deleted":"0","num_feature":"8","num_nodes":"15","size_leaf_vector":"1"}},{"base_weights":[3.3154245E-2,-5.345269E-1,1.0685586E0,-8.3408487E-1,-1.3081965E-1,5.495981E-1,1.1647346E0,-2.0235222E-2,-4.0562004E-2,2.11063E-3,-3.7125424E-2,2.2388265E-2,-5.686454E-2,3.2898463E-2,4.1519277E-2],"categories":[],"categories_nodes":[],"categories_segments":[],"categories_sizes":[],"default_left":[0,0,0,0,0,0,0,0,0,0,0,0,0,0,0],"id":32,"left_children":[1,3,5,7,9,11,13,-1,-1,-1,-1,-1,-1,-1,-1],"loss_changes":[4.1289447E2,5.4856506E1,1.2395966E1,2.1987564E1,3.505253E1,8.444499E0,1.657959E0,0E0,0E0,0E0,0E0,0E0,0E0,0E0,0E0],"parents":[2147483647,0,0,1,1,2,2,3,3,4,4,5,5,6,6],"right_children":[2,4,6,8,10,12,14,-1,-1,-1,-1,-1,-1,-1,-1],"split_conditions":[4.6E1,1.2E1,6.9E1,5.1E1,3.26E2,3.94E2,9E1,-2.0235222E-2,-4.0562004E-2,2.11063E-3,-3.7125424E-2,2.2388265E-2,-5.686454E-2,3.2898463E-2,4.1519277E-2],"split_indices":[0,0,0,4,5,5,0,0,0,0,0,0,0,0,0],"split_type":[0,0,0,0,0,0,0,0,0,0,0,0,0,0,0],"sum_hessian":[7.0245074E2,4.5369434E2,2.4875641E2,2.6042508E2,1.9326927E2,3.8912746E1,2.0984366E2,1.507665E2,1.0965857E2,1.6061778E2,3.2651493E1,3.724274E1,1.6700075E0,3.1887278E1,1.7795639E2],"tree_param":{"num_deleted":"0","num_feature":"8","num_nodes":"15","size_leaf_vector":"1"}},{"base_weights":[2.7983185E-2,-6.127319E-1,9.4846255E-1,-3.2409358E-1,-1.0661495E0,4.0568018E-1,1.1598203E0,-1.2065019E-3,-2.5984695E-2,-3.9860234E-2,-1.6859133E-2,1.6677817E-2,-3.913519E-2,3.2762565E-2,4.1375205E-2],"categories":[],"categories_nodes":[],"categories_segments":[],"categories_sizes":[],"default_left":[0,0,0,0,0,0,0,0,0,0,0,0,0,0,0],"id":33,"left_children":[1,3,5,7,9,11,13,-1,-1,-1,-1,-1,-1,-1,-1],"loss_changes":[4.108625E2,5.373877E1,3.2782166E1,3.1093243E1,8.142014E0,9.542447E0,1.6498718E0,0E0,0E0,0E0,0E0,0E0,0E0,0E0,0E0],"parents":[2147483647,0,0,1,1,2,2,3,3,4,4,5,5,6,6],"right_children":[2,4,6,8,10,12,14,-1,-1,-1,-1,-1,-1,-1,-1],"split_conditions":[3.5E1,2.079059E4,6.7E1,3.4285715E0,1.9E1,3.94E2,9E1,-1.2065019E-3,-2.5984695E-2,-3.9860234E-2,-1.6859133E-2,1.6677817E-2,-3.913519E-2,3.2762565E-2,4.1375205E-2],"split_indices":[0,2,0,7,0,5,0,0,0,0,0,0,0,0,0],"split_type":[0,0,0,0,0,0,0,0,0,0,0,0,0,0,0],"sum_hessian":[6.966441E2,4.1073447E2,2.8590967E2,2.5098753E2,1.5974693E2,8.014614E1,2.0576352E2,1.498872E2,1.0110032E2,1.3852945E2,2.121749E1,7.631724E1,3.8288999E0,3.1909277E1,1.7385423E2],"tree_param":{"num_deleted":"0","num_feature":"8","num_nodes":"15","size_leaf_vector":"1"}},{"base_weights":[-1.290463E-2,-6.3828224E-1,1.002939E0,-3.5715708E-1,-9.669871E-1,6.020089E-1,1.181852E0,-4.6795215E-3,-3.9304964E-2,-3.6861684E-2,-5.3042034E-3,-1.4816084E-2,2.5431897E-2,4.132168E-2,3.7369166E-2],"categories":[],"categories_nodes":[],"categories_segments":[],"categories_sizes":[],"default_left":[0,0,0,0,0,0,0,0,0,0,0,0,0,0,0],"id":34,"left_children":[1,3,5,7,9,11,13,-1,-1,-1,-1,-1,-1,-1,-1],"loss_changes":[4.2675665E2,3.8407578E1,1.8339813E1,3.879608E1,1.5687439E1,1.0971716E1,2.3713684E-1,0E0,0E0,0E0,0E0,0E0,0E0,0E0,0E0],"parents":[2147483647,0,0,1,1,2,2,3,3,4,4,5,5,6,6],"right_children":[2,4,6,8,10,12,14,-1,-1,-1,-1,-1,-1,-1,-1],"split_conditions":[4E1,3.6764705E0,8.4E1,3.38E2,2.7E1,9E0,1.1433878E3,-4.6795215E-3,-3.9304964E-2,-3.6861684E-2,-5.3042034E-3,-1.4816084E-2,2.5431897E-2,4.132168E-2,3.7369166E-2],"split_indices":[0,7,0,5,0,4,6,0,0,0,0,0,0,0,0],"split_type":[0,0,0,0,0,0,0,0,0,0,0,0,0,0,0],"sum_hessian":[6.7175726E2,4.1579523E2,2.55962E2,2.2413829E2,1.9165694E2,7.899979E1,1.7696222E2,1.746244E2,4.951389E1,1.7052577E2,2.1131165E1,9.113515E0,6.988627E1,1.5359656E2,2.336565E1],"tree_param":{"num_deleted":"0","num_feature":"8","num_nodes":"15","size_leaf_vector":"1"}},{"base_weights":[1.1369396E-2,-5.4696333E-1,1.0186758E0,-3.896428E-1,-1.1403742E0,6.617475E-1,1.1749187E0,-1.2398324E-3,-2.7385082E-2,-3.2589454E-2,-4.1743178E-2,-8.665478E-4,2.522916E-2,3.2421816E-2,4.0726103E-2],"categories":[],"categories_nodes":[],"categories_segments":[],"categories_sizes":[],"default_left":[0,0,0,0,0,0,0,0,0,0,0,0,0,0,0],"id":35,"left_children":[1,3,5,7,9,11,13,-1,-1,-1,-1,-1,-1,-1,-1],"loss_changes":[3.8142624E2,4.071614E1,1.3466278E1,4.9229088E1,1.2082291E0,3.4999313E0,1.619873E-1,0E0,0E0,0E0,0E0,0E0,0E0,0E0,0E0],"parents":[2147483647,0,0,1,1,2,2,3,3,4,4,5,5,6,6],"right_children":[2,4,6,8,10,12,14,-1,-1,-1,-1,-1,-1,-1,-1],"split_conditions":[4.5E1,3.38E2,9E1,3.6206896E0,3.82E2,9E0,6E0,-1.2398324E-3,-2.7385082E-2,-3.2589454E-2,-4.1743178E-2,-8.665478E-4,2.522916E-2,3.2421816E-2,4.0726103E-2],"split_indices":[0,5,0,7,5,4,5,0,0,0,0,0,0,0,0],"split_type":[0,0,0,0,0,0,0,0,0,0,0,0,0,0,0],"sum_hessian":[6.7818365E2,4.3632587E2,2.4185777E2,3.449083E2,9.1417564E1,7.366192E1,1.6819585E2,1.8381999E2,1.6108832E2,2.374599E1,6.767157E1,6.712177E0,6.6949745E1,3.3568714E0,1.6483897E2],"tree_param":{"num_deleted":"0","num_feature":"8","num_nodes":"15","size_leaf_vector":"1"}},{"base_weights":[-4.6970837E-2,-6.1047375E-1,1.0077902E0,-7.792377E-1,-1.148255E-2,4.6738505E-1,1.1361686E0,-1.6631685E-2,-3.5436254E-2,-4.7701053E-2,3.0272254E-3,1.6038339E-3,2.1790113E-2,3.3805937E-2,4.082712E-2],"categories":[],"categories_nodes":[],"categories_segments":[],"categories_sizes":[],"default_left":[0,0,0,0,0,0,0,0,0,0,0,0,0,0,0],"id":36,"left_children":[1,3,5,7,9,11,13,-1,-1,-1,-1,-1,-1,-1,-1],"loss_changes":[3.9083655E2,4.331865E1,1.586673E1,2.4571548E1,1.2818187E1,3.023922E0,1.3214722E0,0E0,0E0,0E0,0E0,0E0,0E0,0E0,0E0],"parents":[2147483647,0,0,1,1,2,2,3,3,4,4,5,5,6,6],"right_children":[2,4,6,8,10,12,14,-1,-1,-1,-1,-1,-1,-1,-1],"split_conditions":[4.5E1,2.3E1,7.2E1,3.3723652E0,5E0,1.875E0,1.03E2,-1.6631685E-2,-3.5436254E-2,-4.7701053E-2,3.0272254E-3,1.6038339E-3,2.1790113E-2,3.3805937E-2,4.082712E-2],"split_indices":[0,0,0,7,5,7,0,0,0,0,0,0,0,0,0],"split_type":[0,0,0,0,0,0,0,0,0,0,0,0,0,0,0],"sum_hessian":[6.5757733E2,4.286067E2,2.2897064E2,3.3437793E2,9.422875E1,4.3970932E1,1.8499971E2,1.5176808E2,1.8260986E2,6.364988E0,8.786377E1,1.2335352E1,3.1635582E1,4.2272923E1,1.4272678E2],"tree_param":{"num_deleted":"0","num_feature":"8","num_nodes":"15","size_leaf_vector":"1"}},{"base_weights":[2.6523374E-2,-5.430099E-1,9.92886E-1,-3.655148E-1,-1.0872082E0,6.813545E-1,1.1705966E0,-6.3746907E-3,-2.793454E-2,-4.020596E-2,-1.3540867E-2,2.4959676E-2,-5.361384E-2,4.0625174E-2,3.4384407E-2],"categories":[],"categories_nodes":[],"categories_segments":[],"categories_sizes":[],"default_left":[0,0,0,0,0,0,0,0,0,0,0,0,0,0,0],"id":37,"left_children":[1,3,5,7,9,11,13,-1,-1,-1,-1,-1,-1,-1,-1],"loss_changes":[3.5952673E2,3.9682434E1,1.3388855E1,2.4856953E1,5.4164352E0,8.17601E0,1.3879395E-1,0E0,0E0,0E0,0E0,0E0,0E0,0E0,0E0],"parents":[2147483647,0,0,1,1,2,2,3,3,4,4,5,5,6,6],"right_children":[2,4,6,8,10,12,14,-1,-1,-1,-1,-1,-1,-1,-1],"split_conditions":[4E1,6.2E1,9E1,4.1752577E0,2.2E1,4.23E2,1.2802465E3,-6.3746907E-3,-2.793454E-2,-4.020596E-2,-1.3540867E-2,2.4959676E-2,-5.361384E-2,4.0625174E-2,3.4384407E-2],"split_indices":[0,4,0,7,0,5,6,0,0,0,0,0,0,0,0],"split_type":[0,0,0,0,0,0,0,0,0,0,0,0,0,0,0],"sum_hessian":[6.532256E2,4.1099326E2,2.4223233E2,3.099303E2,1.0106296E2,8.801362E1,1.542187E2,2.2018472E2,8.974559E1,9.0923996E1,1.0138961E1,8.641072E1,1.6028993E0,1.4892332E2,5.2953806E0],"tree_param":{"num_deleted":"0","num_feature":"8","num_nodes":"15","size_leaf_vector":"1"}},{"base_weights":[8.85156E-3,-5.2356815E-1,9.9549085E-1,-3.527928E-1,-1.1544772E0,6.343482E-1,1.1636837E0,-2.6847847E-2,-2.4100184E-3,-2.7487246E-2,-4.1430883E-2,1.6494496E-2,2.9995888E-2,2.688619E-2,4.0375385E-2],"categories":[],"categories_nodes":[],"categories_segments":[],"categories_sizes":[],"default_left":[0,0,0,0,0,0,0,0,0,0,0,0,0,0,0],"id":38,"left_children":[1,3,5,7,9,11,13,-1,-1,-1,-1,-1,-1,-1,-1],"loss_changes":[3.3822766E2,4.5039352E1,1.3686722E1,3.956057E1,1.4308395E0,2.618248E0,3.2060242E-1,0E0,0E0,0E0,0E0,0E0,0E0,0E0,0E0],"parents":[2147483647,0,0,1,1,2,2,3,3,4,4,5,5,6,6],"right_children":[2,4,6,8,10,12,14,-1,-1,-1,-1,-1,-1,-1,-1],"split_conditions":[4.5E1,3.29E2,9E1,7E0,1.810156E4,3.0379746E0,6E0,-2.6847847E-2,-2.4100184E-3,-2.7487246E-2,-4.1430883E-2,1.6494496E-2,2.9995888E-2,2.688619E-2,4.0375385E-2],"split_indices":[0,5,0,0,2,7,5,0,0,0,0,0,0,0,0],"split_type":[0,0,0,0,0,0,0,0,0,0,0,0,0,0,0],"sum_hessian":[6.438535E2,4.1818082E2,2.256727E2,3.2911584E2,8.906495E1,7.17298E1,1.539429E2,1.315582E2,1.9755766E2,1.0082694E1,7.8982254E1,4.3041687E1,2.8688108E1,2.3174E0,1.516255E2],"tree_param":{"num_deleted":"0","num_feature":"8","num_nodes":"15","size_leaf_vector":"1"}},{"base_weights":[2.5322119E-2,-4.882729E-1,1.0119966E0,-7.7208585E-1,-1.08485386E-1,6.96529E-1,1.1394013E0,-1.6929561E-2,-3.7635177E-2,9.688153E-4,-4.384591E-2,1.6272312E-2,3.3947673E-2,3.4710392E-2,4.0075544E-2],"categories":[],"categories_nodes":[],"categories_segments":[],"categories_sizes":[],"default_left":[0,0,0,0,0,0,0,0,0,0,0,0,0,0,0],"id":39,"left_children":[1,3,5,7,9,11,13,-1,-1,-1,-1,-1,-1,-1,-1],"loss_changes":[3.1313443E2,4.379265E1,8.480606E0,2.081723E1,2.7581797E1,3.9152584E0,4.0596008E-1,0E0,0E0,0E0,0E0,0E0,0E0,0E0,0E0],"parents":[2147483647,0,0,1,1,2,2,3,3,4,4,5,5,6,6],"right_children":[2,4,6,8,10,12,14,-1,-1,-1,-1,-1,-1,-1,-1],"split_conditions":[4.5E1,1.2E1,8.4E1,1.746997E4,3.82E2,3.0379746E0,1.03E2,-1.6929561E-2,-3.7635177E-2,9.688153E-4,-4.384591E-2,1.6272312E-2,3.3947673E-2,3.4710392E-2,4.0075544E-2],"split_indices":[0,0,0,2,5,7,0,0,0,0,0,0,0,0,0],"split_type":[0,0,0,0,0,0,0,0,0,0,0,0,0,0,0],"sum_hessian":[6.179099E2,4.063711E2,2.115388E2,2.3255405E2,1.7381705E2,6.0883606E1,1.506552E2,1.2333788E2,1.09216156E2,1.5552632E2,1.8290728E1,3.412761E1,2.6755999E1,2.0828045E1,1.2982715E2],"tree_param":{"num_deleted":"0","num_feature":"8","num_nodes":"15","size_leaf_vector":"1"}},{"base_weights":[-2.1643244E-2,-6.5335745E-1,7.5941384E-1,-3.1570575E-1,-9.2026806E-1,3.207573E-1,1.1253427E0,3.373491E-3,-3.3711456E-2,-3.7480578E-2,-2.433458E-2,1.4351115E-2,-6.298615E-2,2.9139746E-2,3.940029E-2],"categories":[],"categories_nodes":[],"categories_segments":[],"categories_sizes":[],"default_left":[0,0,0,0,0,0,0,0,0,0,0,0,0,0,0],"id":40,"left_children":[1,3,5,7,9,11,13,-1,-1,-1,-1,-1,-1,-1,-1],"loss_changes":[3.0337366E2,3.0621933E1,4.411354E1,4.1012703E1,6.741226E0,2.5451378E1,6.465759E-1,0E0,0E0,0E0,0E0,0E0,0E0,0E0,0E0],"parents":[2147483647,0,0,1,1,2,2,3,3,4,4,5,5,6,6],"right_children":[2,4,6,8,10,12,14,-1,-1,-1,-1,-1,-1,-1,-1],"split_conditions":[2.7E1,3.2110093E0,8.4E1,2.27E2,7E0,9E0,9E1,3.373491E-3,-3.3711456E-2,-3.7480578E-2,-2.433458E-2,1.4351115E-2,-6.298615E-2,2.9139746E-2,3.940029E-2],"split_indices":[0,7,0,5,0,3,0,0,0,0,0,0,0,0,0],"split_type":[0,0,0,0,0,0,0,0,0,0,0,0,0,0,0],"sum_hessian":[6.1485547E2,3.3993356E2,2.7492194E2,1.5009865E2,1.898349E2,1.2505101E2,1.4987093E2,9.2320946E1,5.77777E1,1.07358444E2,8.247646E1,1.1975835E2,5.29266E0,8.059429E0,1.418115E2],"tree_param":{"num_deleted":"0","num_feature":"8","num_nodes":"15","size_leaf_vector":"1"}},{"base_weights":[-2.1210406E-2,-6.196194E-1,7.2429967E-1,-2.5685835E-1,-8.922266E-1,2.6020142E-1,1.1085879E0,6.801325E-3,-2.4475764E-2,-2.7556848E-2,-4.027384E-2,1.2592239E-2,-3.916284E-2,3.0357506E-2,3.9137974E-2],"categories":[],"categories_nodes":[],"categories_segments":[],"categories_sizes":[],"default_left":[0,0,0,0,0,0,0,0,0,0,0,0,0,0,0],"id":41,"left_children":[1,3,5,7,9,11,13,-1,-1,-1,-1,-1,-1,-1,-1],"loss_changes":[2.721277E2,3.345053E1,4.842427E1,2.980006E1,4.9598694E0,1.7929901E1,8.2936096E-1,0E0,0E0,0E0,0E0,0E0,0E0,0E0,0E0],"parents":[2147483647,0,0,1,1,2,2,3,3,4,4,5,5,6,6],"right_children":[2,4,6,8,10,12,14,-1,-1,-1,-1,-1,-1,-1,-1],"split_conditions":[2.7E1,3.1451614E0,8E1,1.3E1,4.5E1,8.625E0,9E1,6.801325E-3,-2.4475764E-2,-2.7556848E-2,-4.027384E-2,1.2592239E-2,-3.916284E-2,3.0357506E-2,3.9137974E-2],"split_indices":[0,7,0,1,1,3,0,0,0,0,0,0,0,0,0],"split_type":[0,0,0,0,0,0,0,0,0,0,0,0,0,0,0],"sum_hessian":[6.0998584E2,3.3838474E2,2.7160107E2,1.4520416E2,1.9318057E2,1.2303984E2,1.4856123E2,7.244873E1,7.275543E1,1.4389995E2,4.928063E1,1.1446868E2,8.57116E0,1.4685243E1,1.3387599E2],"tree_param":{"num_deleted":"0","num_feature":"8","num_nodes":"15","size_leaf_vector":"1"}},{"base_weights":[-1.8822126E-2,1.784441E-1,-5.476853E-1,3.4345976E-1,-6.6052026E-1,-4.0163395E-1,-1.0320033E0,-2.751402E-2,1.2716815E-2,-1.5583644E-2,-3.8759407E-2,-4.3417476E-3,-2.3767099E-2,-2.6740536E-2,-3.954033E-2],"categories":[],"categories_nodes":[],"categories_segments":[],"categories_sizes":[],"default_left":[0,0,0,0,0,0,0,0,0,0,0,0,0,0,0],"id":42,"left_children":[1,3,5,7,9,11,13,-1,-1,-1,-1,-1,-1,-1,-1],"loss_changes":[6.3138172E1,6.1014168E1,1.1613617E1,1.0448875E1,6.982498E0,9.9868965E0,1.087822E0,0E0,0E0,0E0,0E0,0E0,0E0,0E0,0E0],"parents":[2147483647,0,0,1,1,2,2,3,3,4,4,5,5,6,6],"right_children":[2,4,6,8,10,12,14,-1,-1,-1,-1,-1,-1,-1,-1],"split_conditions":[4.1551247E0,3.34E2,7.8E1,2.7E1,4.29E2,5.578512E0,4.736842E0,-2.751402E-2,1.2716815E-2,-1.5583644E-2,-3.8759407E-2,-4.3417476E-3,-2.3767099E-2,-2.6740536E-2,-3.954033E-2],"split_indices":[7,5,4,5,5,7,7,0,0,0,0,0,0,0,0],"split_type":[0,0,0,0,0,0,0,0,0,0,0,0,0,0,0],"sum_hessian":[6.0515314E2,4.4073843E2,1.6441472E2,3.6830988E2,7.242854E1,1.26341446E2,3.8073273E1,7.854919E0,3.6045496E2,4.9883114E1,2.2545425E1,6.4416756E1,6.1924694E1,1.1668845E1,2.6404428E1],"tree_param":{"num_deleted":"0","num_feature":"8","num_nodes":"15","size_leaf_vector":"1"}},{"base_weights":[2.9335871E-2,2.2220744E-1,-5.228495E-1,3.3996287E-1,-9.025193E-1,-3.594274E-1,-1.1237322E0,-2.7543595E-2,1.2418571E-2,-2.133852E-2,-4.1386914E-2,-7.8393595E-4,-2.1850985E-2,-3.349313E-2,-4.0654752E-2],"categories":[],"categories_nodes":[],"categories_segments":[],"categories_sizes":[],"default_left":[0,0,0,0,0,0,0,0,0,0,0,0,0,0,0],"id":43,"left_children":[1,3,5,7,9,11,13,-1,-1,-1,-1,-1,-1,-1,-1],"loss_changes":[6.4270294E1,5.9234764E1,1.5322765E1,9.091946E0,3.5503387E0,1.1304265E1,2.5031662E-1,0E0,0E0,0E0,0E0,0E0,0E0,0E0,0E0],"parents":[2147483647,0,0,1,1,2,2,3,3,4,4,5,5,6,6],"right_children":[2,4,6,8,10,12,14,-1,-1,-1,-1,-1,-1,-1,-1],"split_conditions":[4.285714E0,3.82E2,4.4E1,2.7E1,4.35E2,5.4261956E0,4.736842E0,-2.7543595E-2,1.2418571E-2,-2.133852E-2,-4.1386914E-2,-7.8393595E-4,-2.1850985E-2,-3.349313E-2,-4.0654752E-2],"split_indices":[7,5,1,5,5,7,7,0,0,0,0,0,0,0,0],"split_type":[0,0,0,0,0,0,0,0,0,0,0,0,0,0,0],"sum_hessian":[6.034982E2,4.472872E2,1.5621098E2,4.0490598E2,4.2381245E1,1.22827194E2,3.338379E1,6.895864E0,3.980101E2,2.1644068E1,2.0737177E1,5.506897E1,6.775823E1,8.728288E0,2.46555E1],"tree_param":{"num_deleted":"0","num_feature":"8","num_nodes":"15","size_leaf_vector":"1"}},{"base_weights":[3.5601E-2,-4.2655095E-1,9.3243176E-1,-7.37681E-1,-1.2956272E-1,5.8039075E-1,1.1180042E0,-1.5595873E-2,-3.7117846E-2,9.3382783E-4,-3.4159593E-2,2.1580229E-2,-7.186619E-2,3.3827897E-2,3.9029296E-2],"categories":[],"categories_nodes":[],"categories_segments":[],"categories_sizes":[],"default_left":[0,0,0,0,0,0,0,0,0,0,0,0,0,0,0],"id":44,"left_children":[1,3,5,7,9,11,13,-1,-1,-1,-1,-1,-1,-1,-1],"loss_changes":[2.4620587E2,3.6211548E1,1.3177551E1,1.8452744E1,2.7021463E1,8.284843E0,2.029419E-1,0E0,0E0,0E0,0E0,0E0,0E0,0E0,0E0],"parents":[2147483647,0,0,1,1,2,2,3,3,4,4,5,5,6,6],"right_children":[2,4,6,8,10,12,14,-1,-1,-1,-1,-1,-1,-1,-1],"split_conditions":[4.5E1,1E1,9E1,1.810156E4,3.34E2,9.227273E0,1.03E2,-1.5595873E-2,-3.7117846E-2,9.3382783E-4,-3.4159593E-2,2.1580229E-2,-7.186619E-2,3.3827897E-2,3.9029296E-2],"split_indices":[0,0,0,2,5,3,0,0,0,0,0,0,0,0,0],"split_type":[0,0,0,0,0,0,0,0,0,0,0,0,0,0,0],"sum_hessian":[5.940054E2,3.9199353E2,2.0201181E2,1.9141943E2,2.005741E2,6.9753365E1,1.3225845E2,1.0363752E2,8.778192E1,1.6966263E2,3.0911474E1,6.8607414E1,1.145953E0,1.1050656E1,1.21207794E2],"tree_param":{"num_deleted":"0","num_feature":"8","num_nodes":"15","size_leaf_vector":"1"}},{"base_weights":[-1.2053065E-3,-4.766527E-1,9.167503E-1,-8.713543E-1,-2.0550251E-1,4.7450715E-1,1.1177037E0,-1.9144671E-2,-3.6120314E-2,-3.2316782E-3,-4.1735977E-2,8.007885E-3,2.775526E-2,3.927544E-2,3.3822842E-2],"categories":[],"categories_nodes":[],"categories_segments":[],"categories_sizes":[],"default_left":[0,0,0,0,0,0,0,0,0,0,0,0,0,0,0],"id":45,"left_children":[1,3,5,7,9,11,13,-1,-1,-1,-1,-1,-1,-1,-1],"loss_changes":[2.5892816E2,4.1818665E1,1.7971466E1,8.799179E0,2.6000935E1,5.0436125E0,3.57193E-1,0E0,0E0,0E0,0E0,0E0,0E0,0E0,0E0],"parents":[2147483647,0,0,1,1,2,2,3,3,4,4,5,5,6,6],"right_children":[2,4,6,8,10,12,14,-1,-1,-1,-1,-1,-1,-1,-1],"split_conditions":[4.5E1,7E0,8.4E1,1.2E1,3.82E2,3.0379746E0,1.1433878E3,-1.9144671E-2,-3.6120314E-2,-3.2316782E-3,-4.1735977E-2,8.007885E-3,2.775526E-2,3.927544E-2,3.3822842E-2],"split_indices":[0,0,0,1,5,7,6,0,0,0,0,0,0,0,0],"split_type":[0,0,0,0,0,0,0,0,0,0,0,0,0,0,0],"sum_hessian":[5.9328033E2,3.9085376E2,2.0242656E2,1.5914642E2,2.3170735E2,6.3263107E1,1.3916345E2,5.6627598E1,1.02518814E2,2.0847217E2,2.3235188E1,3.645693E1,2.680618E1,1.2152871E2,1.7634735E1],"tree_param":{"num_deleted":"0","num_feature":"8","num_nodes":"15","size_leaf_vector":"1"}},{"base_weights":[-1.2547016E-2,1.8449463E-1,-5.809709E-1,2.820865E-1,-9.313013E-1,4.2332205E-1,-6.464471E-1,-5.4820817E-2,1.0288975E-2,-2.1471089E-2,-3.7308864E-2,-4.3548964E-2,3.0254427E-2,-1.8539753E-2,-3.632902E-2],"categories":[],"categories_nodes":[],"categories_segments":[],"categories_sizes":[],"default_left":[0,0,0,0,0,0,0,0,0,0,0,0,0,0,0],"id":46,"left_children":[1,3,5,7,9,11,13,-1,-1,-1,-1,-1,-1,-1,-1],"loss_changes":[6.5947586E1,4.760058E1,9.969864E0,1.1968189E1,1.6045513E0,7.0716033E0,6.301758E0,0E0,0E0,0E0,0E0,0E0,0E0,0E0,0E0],"parents":[2147483647,0,0,1,1,2,2,3,3,4,4,5,5,6,6],"right_children":[2,4,6,8,10,12,14,-1,-1,-1,-1,-1,-1,-1,-1],"split_conditions":[4.285714E0,3.94E2,5.875E0,2.3E1,4.23E2,3.1885E2,7.8E1,-5.4820817E-2,1.0288975E-2,-2.1471089E-2,-3.7308864E-2,-4.3548964E-2,3.0254427E-2,-1.8539753E-2,-3.632902E-2],"split_indices":[7,5,3,5,5,2,4,0,0,0,0,0,0,0,0],"split_type":[0,0,0,0,0,0,0,0,0,0,0,0,0,0,0],"sum_hessian":[5.887584E2,4.371906E2,1.5156784E2,4.0203815E2,3.5152473E1,9.265986E0,1.4230186E2,3.3897383E0,3.986484E2,1.1472378E1,2.3680094E1,1.9576492E0,7.3083377E0,1.1210346E2,3.0198397E1],"tree_param":{"num_deleted":"0","num_feature":"8","num_nodes":"15","size_leaf_vector":"1"}},{"base_weights":[-3.705883E-2,1.4524175E-1,-5.6588364E-1,2.3900618E-1,-9.7742045E-1,-4.2215216E-1,-1.0722514E0,1.0045986E-2,-7.809486E-3,4.650636E-3,-3.7702583E-2,-2.38538E-3,-2.3947258E-2,-3.8053613E-2,-2.5417158E-2],"categories":[],"categories_nodes":[],"categories_segments":[],"categories_sizes":[],"default_left":[0,0,0,0,0,0,0,0,0,0,0,0,0,0,0],"id":47,"left_children":[1,3,5,7,9,11,13,-1,-1,-1,-1,-1,-1,-1,-1],"loss_changes":[5.5858643E1,4.5344116E1,1.0793636E1,9.615934E0,4.243786E0,1.1083357E1,3.089714E-1,0E0,0E0,0E0,0E0,0E0,0E0,0E0,0E0],"parents":[2147483647,0,0,1,1,2,2,3,3,4,4,5,5,6,6],"right_children":[2,4,6,8,10,12,14,-1,-1,-1,-1,-1,-1,-1,-1],"split_conditions":[4.285714E0,3.96E2,7.4E1,3.34E2,1.3333334E0,5.342466E0,1.0781816E3,1.0045986E-2,-7.809486E-3,4.650636E-3,-3.7702583E-2,-2.38538E-3,-2.3947258E-2,-3.8053613E-2,-2.5417158E-2],"split_indices":[7,5,4,5,7,7,6,0,0,0,0,0,0,0,0],"split_type":[0,0,0,0,0,0,0,0,0,0,0,0,0,0,0],"sum_hessian":[5.793646E2,4.308275E2,1.4853712E2,3.9762903E2,3.3198486E1,1.1571661E2,3.282052E1,3.576882E2,3.9940823E1,3.0935988E0,3.0104887E1,5.031995E1,6.539667E1,3.0097889E1,2.722627E0],"tree_param":{"num_deleted":"0","num_feature":"8","num_nodes":"15","size_leaf_vector":"1"}},{"base_weights":[4.0240698E-3,-5.0841767E-1,8.326174E-1,-8.26612E-1,-2.6176754E-1,4.4671714E-1,1.1012762E0,-1.8711565E-2,-3.60143E-2,-5.398023E-3,-3.3779487E-2,-2.2357399E-2,1.9504232E-2,3.250852E-2,3.886238E-2],"categories":[],"categories_nodes":[],"categories_segments":[],"categories_sizes":[],"default_left":[0,0,0,0,0,0,0,0,0,0,0,0,0,0,0],"id":48,"left_children":[1,3,5,7,9,11,13,-1,-1,-1,-1,-1,-1,-1,-1],"loss_changes":[2.4896426E2,2.8419907E1,2.32117E1,9.730812E0,1.5406317E1,1.1900593E1,4.8945618E-1,0E0,0E0,0E0,0E0,0E0,0E0,0E0,0E0],"parents":[2147483647,0,0,1,1,2,2,3,3,4,4,5,5,6,6],"right_children":[2,4,6,8,10,12,14,-1,-1,-1,-1,-1,-1,-1,-1],"split_conditions":[3.5E1,7E0,8.4E1,3.3723652E0,3.52E2,8E0,1.03E2,-1.8711565E-2,-3.60143E-2,-5.398023E-3,-3.3779487E-2,-2.2357399E-2,1.9504232E-2,3.250852E-2,3.886238E-2],"split_indices":[0,0,0,7,5,4,0,0,0,0,0,0,0,0,0],"split_type":[0,0,0,0,0,0,0,0,0,0,0,0,0,0,0],"sum_hessian":[5.863295E2,3.6227133E2,2.2405817E2,1.5817125E2,2.041001E2,9.198193E1,1.3207623E2,6.836843E1,8.980282E1,1.7794447E2,2.6155617E1,8.958809E0,8.3023125E1,1.7568804E1,1.1450743E2],"tree_param":{"num_deleted":"0","num_feature":"8","num_nodes":"15","size_leaf_vector":"1"}},{"base_weights":[2.0352885E-2,-4.284587E-1,9.22067E-1,-2.6374215E-1,-9.851554E-1,5.221934E-1,1.0743667E0,-1.8635696E-2,5.428767E-4,-3.52991E-2,1.7894484E-2,2.0594727E-2,-2.6293539E-2,3.860877E-2,2.9263837E-2],"categories":[],"categories_nodes":[],"categories_segments":[],"categories_sizes":[],"default_left":[0,0,0,0,0,0,0,0,0,0,0,0,0,0,0],"id":49,"left_children":[1,3,5,7,9,11,13,-1,-1,-1,-1,-1,-1,-1,-1],"loss_changes":[2.3577675E2,3.565325E1,1.177269E1,2.3162966E1,4.9852524E0,5.097946E0,1.3734894E0,0E0,0E0,0E0,0E0,0E0,0E0,0E0,0E0],"parents":[2147483647,0,0,1,1,2,2,3,3,4,4,5,5,6,6],"right_children":[2,4,6,8,10,12,14,-1,-1,-1,-1,-1,-1,-1,-1],"split_conditions":[4.5E1,6.1E1,7.7E1,1.2E1,8.222222E0,3.94E2,2.79E2,-1.8635696E-2,5.428767E-4,-3.52991E-2,1.7894484E-2,2.0594727E-2,-2.6293539E-2,3.860877E-2,2.9263837E-2],"split_indices":[0,4,0,0,3,5,5,0,0,0,0,0,0,0,0],"split_type":[0,0,0,0,0,0,0,0,0,0,0,0,0,0,0],"sum_hessian":[5.825793E2,3.8896716E2,1.9361212E2,3.0017383E2,8.879333E1,5.3424137E1,1.4018799E2,1.5102968E2,1.4914415E2,8.66519E1,2.1414244E0,5.050901E1,2.915126E0,1.1738014E2,2.2807848E1],"tree_param":{"num_deleted":"0","num_feature":"8","num_nodes":"15","size_leaf_vector":"1"}},{"base_weights":[2.3848424E-2,-3.9906114E-1,9.2208624E-1,-2.7028295E-1,-9.99572E-1,4.271352E-1,1.0627496E0,2.4784132E-4,-2.1954602E-2,-9.331224E-3,-3.6728904E-2,3.1575248E-2,3.0339E-4,3.7133183E-2,-1.473798E-2],"categories":[],"categories_nodes":[],"categories_segments":[],"categories_sizes":[],"default_left":[0,0,0,0,0,0,0,0,0,0,0,0,0,0,0],"id":50,"left_children":[1,3,5,7,9,11,13,-1,-1,-1,-1,-1,-1,-1,-1],"loss_changes":[2.1303789E2,2.9470581E1,1.2481583E1,3.1858889E1,3.140831E0,8.095905E0,2.6779633E0,0E0,0E0,0E0,0E0,0E0,0E0,0E0,0E0],"parents":[2147483647,0,0,1,1,2,2,3,3,4,4,5,5,6,6],"right_children":[2,4,6,8,10,12,14,-1,-1,-1,-1,-1,-1,-1,-1],"split_conditions":[4.5E1,3.38E2,6.9E1,3.6206896E0,1.3333334E0,8.7881525E2,9.794118E0,2.4784132E-4,-2.1954602E-2,-9.331224E-3,-3.6728904E-2,3.1575248E-2,3.0339E-4,3.7133183E-2,-1.473798E-2],"split_indices":[0,5,0,7,7,6,3,0,0,0,0,0,0,0,0],"split_type":[0,0,0,0,0,0,0,0,0,0,0,0,0,0,0],"sum_hessian":[5.607937E2,3.8127188E2,1.7952182E2,3.139642E2,6.7307686E1,3.9747738E1,1.397741E2,1.7849045E2,1.3547375E2,5.4674044E0,6.184028E1,1.8344528E1,2.1403208E1,1.3858899E2,1.1850977E0],"tree_param":{"num_deleted":"0","num_feature":"8","num_nodes":"15","size_leaf_vector":"1"}},{"base_weights":[-2.1023484E-2,-4.0926972E-1,1.0098928E0,-6.415275E-1,3.1778548E-2,7.0520824E-1,1.1042334E0,-1.6644992E-2,-3.497374E-2,4.60454E-3,-4.1524503E-2,2.7653014E-3,2.9595675E-2,2.2706121E-2,3.838674E-2],"categories":[],"categories_nodes":[],"categories_segments":[],"categories_sizes":[],"default_left":[0,0,0,0,0,0,0,0,0,0,0,0,0,0,0],"id":51,"left_children":[1,3,5,7,9,11,13,-1,-1,-1,-1,-1,-1,-1,-1],"loss_changes":[2.215685E2,4.1201797E1,4.3316956E0,1.5583107E1,1.7385794E1,3.39575E0,3.7405396E-1,0E0,0E0,0E0,0E0,0E0,0E0,0E0,0E0],"parents":[2147483647,0,0,1,1,2,2,3,3,4,4,5,5,6,6],"right_children":[2,4,6,8,10,12,14,-1,-1,-1,-1,-1,-1,-1,-1],"split_conditions":[5.8E1,1.9E1,9E1,2.7E1,3.82E2,1.6981132E0,6E0,-1.6644992E-2,-3.497374E-2,4.60454E-3,-4.1524503E-2,2.7653014E-3,2.9595675E-2,2.2706121E-2,3.838674E-2],"split_indices":[0,0,0,1,5,7,5,0,0,0,0,0,0,0,0],"split_type":[0,0,0,0,0,0,0,0,0,0,0,0,0,0,0],"sum_hessian":[5.53588E2,4.021492E2,1.5143878E2,2.6344278E2,1.3870642E2,3.5835835E1,1.1560294E2,1.8436855E2,7.907426E1,1.2816982E2,1.0536608E1,7.025398E0,2.8810436E1,1.9738939E0,1.1362905E2],"tree_param":{"num_deleted":"0","num_feature":"8","num_nodes":"15","size_leaf_vector":"1"}},{"base_weights":[1.3919053E-2,-3.7152672E-1,8.6717105E-1,-2.4096738E-1,-9.6851337E-1,4.7740027E-1,1.0980512E0,-2.1041436E-2,-9.7577926E-4,-3.7176527E-2,-1.6300198E-2,1.8021576E-2,-5.252342E-2,3.8500573E-2,3.4020323E-2],"categories":[],"categories_nodes":[],"categories_segments":[],"categories_sizes":[],"default_left":[0,0,0,0,0,0,0,0,0,0,0,0,0,0,0],"id":52,"left_children":[1,3,5,7,9,11,13,-1,-1,-1,-1,-1,-1,-1,-1],"loss_changes":[1.8099454E2,2.9531536E1,1.539267E1,2.4374495E1,3.6385155E0,5.6716356E0,1.822815E-1,0E0,0E0,0E0,0E0,0E0,0E0,0E0,0E0],"parents":[2147483647,0,0,1,1,2,2,3,3,4,4,5,5,6,6],"right_children":[2,4,6,8,10,12,14,-1,-1,-1,-1,-1,-1,-1,-1],"split_conditions":[4.5E1,3.29E2,9E1,7E0,2.3E1,8.875E0,2.93E2,-2.1041436E-2,-9.7577926E-4,-3.7176527E-2,-1.6300198E-2,1.8021576E-2,-5.252342E-2,3.8500573E-2,3.4020323E-2],"split_indices":[0,5,0,0,0,3,5,0,0,0,0,0,0,0,0],"split_type":[0,0,0,0,0,0,0,0,0,0,0,0,0,0,0],"sum_hessian":[5.5031146E2,3.7906305E2,1.7124843E2,3.1105698E2,6.800608E1,6.372384E1,1.0752459E2,1.1381699E2,1.9723999E2,5.580447E1,1.2201608E1,6.2339844E1,1.3839947E0,9.323234E1,1.4292252E1],"tree_param":{"num_deleted":"0","num_feature":"8","num_nodes":"15","size_leaf_vector":"1"}},{"base_weights":[-5.1942733E-3,-3.5025492E-1,9.836351E-1,-6.5105385E-1,-1.02265805E-1,6.387373E-1,1.0936759E0,-9.165944E-3,-3.0614672E-2,3.0056655E-3,-1.9219123E-2,2.7859606E-2,1.0787005E-2,2.504465E-2,3.8035393E-2],"categories":[],"categories_nodes":[],"categories_segments":[],"categories_sizes":[],"default_left":[0,0,0,0,0,0,0,0,0,0,0,0,0,0,0],"id":53,"left_children":[1,3,5,7,9,11,13,-1,-1,-1,-1,-1,-1,-1,-1],"loss_changes":[1.8722313E2,3.0336002E1,5.3667603E0,1.6690804E1,1.9189768E1,1.8734131E0,2.965393E-1,0E0,0E0,0E0,0E0,0E0,0E0,0E0,0E0],"parents":[2147483647,0,0,1,1,2,2,3,3,4,4,5,5,6,6],"right_children":[2,4,6,8,10,12,14,-1,-1,-1,-1,-1,-1,-1,-1],"split_conditions":[5.8E1,1E1,9E1,1.2E1,7.8553457E0,9.94966E2,6E0,-9.165944E-3,-3.0614672E-2,3.0056655E-3,-1.9219123E-2,2.7859606E-2,1.0787005E-2,2.504465E-2,3.8035393E-2],"split_indices":[0,0,0,1,3,6,5,0,0,0,0,0,0,0,0],"split_type":[0,0,0,0,0,0,0,0,0,0,0,0,0,0,0],"sum_hessian":[5.487255E2,4.067863E2,1.4193925E2,1.8379929E2,2.22987E2,3.435977E1,1.07579475E2,6.975243E1,1.1404685E2,1.5739099E2,6.559601E1,2.2647177E1,1.1712595E1,2.328744E0,1.0525073E2],"tree_param":{"num_deleted":"0","num_feature":"8","num_nodes":"15","size_leaf_vector":"1"}},{"base_weights":[-1.55023E-2,-4.1021076E-1,8.9166814E-1,-2.858407E-1,-1.0413191E0,5.778357E-1,1.0790687E0,-1.3268645E-3,-2.1912673E-2,-2.429612E-2,-3.8696628E-2,-1.3151276E-2,2.2949984E-2,2.3084024E-2,3.754476E-2],"categories":[],"categories_nodes":[],"categories_segments":[],"categories_sizes":[],"default_left":[0,0,0,0,0,0,0,0,0,0,0,0,0,0,0],"id":54,"left_children":[1,3,5,7,9,11,13,-1,-1,-1,-1,-1,-1,-1,-1],"loss_changes":[1.9179413E2,2.9282375E1,9.531342E0,2.690721E1,1.6279678E0,5.065384E0,3.3088684E-1,0E0,0E0,0E0,0E0,0E0,0E0,0E0,0E0],"parents":[2147483647,0,0,1,1,2,2,3,3,4,4,5,5,6,6],"right_children":[2,4,6,8,10,12,14,-1,-1,-1,-1,-1,-1,-1,-1],"split_conditions":[4.6E1,3.34E2,9E1,3.6764705E0,7.177778E0,8E0,6E0,-1.3268645E-3,-2.1912673E-2,-2.429612E-2,-3.8696628E-2,-1.3151276E-2,2.2949984E-2,2.3084024E-2,3.754476E-2],"split_indices":[0,5,0,7,3,4,5,0,0,0,0,0,0,0,0],"split_type":[0,0,0,0,0,0,0,0,0,0,0,0,0,0,0],"sum_hessian":[5.356465E2,3.7325638E2,1.6239012E2,3.1182635E2,6.1430042E1,6.073924E1,1.0165088E2,1.8246198E2,1.2936436E2,1.1744117E1,4.9685925E1,5.037634E0,5.5701607E1,2.0741425E0,9.957674E1],"tree_param":{"num_deleted":"0","num_feature":"8","num_nodes":"15","size_leaf_vector":"1"}},{"base_weights":[-8.775561E-3,-3.8161305E-1,9.16189E-1,-6.3353604E-1,-7.502058E-2,5.8969253E-1,1.0844955E0,-1.4944003E-2,-3.7764452E-2,2.368692E-3,-3.337515E-2,2.1748852E-2,-3.656735E-2,3.7774637E-2,2.8969377E-2],"categories":[],"categories_nodes":[],"categories_segments":[],"categories_sizes":[],"default_left":[0,0,0,0,0,0,0,0,0,0,0,0,0,0,0],"id":55,"left_children":[1,3,5,7,9,11,13,-1,-1,-1,-1,-1,-1,-1,-1],"loss_changes":[1.7902591E2,2.8570808E1,8.175476E0,1.8743538E1,2.1387852E1,3.3667622E0,2.1016693E-1,0E0,0E0,0E0,0E0,0E0,0E0,0E0,0E0],"parents":[2147483647,0,0,1,1,2,2,3,3,4,4,5,5,6,6],"right_children":[2,4,6,8,10,12,14,-1,-1,-1,-1,-1,-1,-1,-1],"split_conditions":[5.1E1,1.3E1,9E1,2.408183E4,3.34E2,4.13E2,1.2802465E3,-1.4944003E-2,-3.7764452E-2,2.368692E-3,-3.337515E-2,2.1748852E-2,-3.656735E-2,3.7774637E-2,2.8969377E-2],"split_indices":[0,0,0,2,5,5,6,0,0,0,0,0,0,0,0],"split_type":[0,0,0,0,0,0,0,0,0,0,0,0,0,0,0],"sum_hessian":[5.191366E2,3.7000635E2,1.4913025E2,2.0309122E2,1.6691512E2,5.0751698E1,9.8378555E1,1.414523E2,6.163891E1,1.4375038E2,2.316474E1,4.9549522E1,1.2021749E0,9.460377E1,3.7747874E0],"tree_param":{"num_deleted":"0","num_feature":"8","num_nodes":"15","size_leaf_vector":"1"}},{"base_weights":[-1.2750158E-2,6.913755E-2,-1.0452597E0,2.3039714E-1,-4.3064567E-1,-8.419839E-1,-1.1340531E0,1.2767706E-2,2.3482768E-3,-1.20621165E-2,-3.651998E-2,-3.660859E-2,-2.2617847E-2,-4.279781E-2,-3.8397204E-2],"categories":[],"categories_nodes":[],"categories_segments":[],"categories_sizes":[],"default_left":[0,0,0,0,0,0,0,0,0,0,0,0,0,0,0],"id":56,"left_children":[1,3,5,7,9,11,13,-1,-1,-1,-1,-1,-1,-1,-1],"loss_changes":[4.4055885E1,3.8897133E1,6.6757965E-1,8.256876E0,5.983862E0,4.5674992E-1,3.2917023E-2,0E0,0E0,0E0,0E0,0E0,0E0,0E0,0E0],"parents":[2147483647,0,0,1,1,2,2,3,3,4,4,5,5,6,6],"right_children":[2,4,6,8,10,12,14,-1,-1,-1,-1,-1,-1,-1,-1],"split_conditions":[3.96E2,4.270073E0,4.29E2,1.230773E4,4.4E1,3.096774E0,5.4E1,1.2767706E-2,2.3482768E-3,-1.20621165E-2,-3.651998E-2,-3.660859E-2,-2.2617847E-2,-4.279781E-2,-3.8397204E-2],"split_indices":[5,7,5,2,1,7,4,0,0,0,0,0,0,0,0],"split_type":[0,0,0,0,0,0,0,0,0,0,0,0,0,0,0],"sum_hessian":[5.209347E2,4.8264774E2,3.8286983E1,3.6492444E2,1.1772329E2,1.168389E1,2.6603094E1,1.9630328E2,1.6862115E2,1.0423766E2,1.3485624E1,5.355782E0,6.328109E0,4.4581175E0,2.2144976E1],"tree_param":{"num_deleted":"0","num_feature":"8","num_nodes":"15","size_leaf_vector":"1"}},{"base_weights":[6.589649E-3,-2.7937108E-1,1.0033154E0,-5.1006645E-1,4.9038272E-2,1.0256842E0,-0E0,-1.0818164E-2,-3.12175E-2,3.7821615E-3,-3.679442E-2,3.68771E-2,2.8508054E-2,-5.3925656E-2,3.8120143E-2],"categories":[],"categories_nodes":[],"categories_segments":[],"categories_sizes":[],"default_left":[0,0,0,0,0,0,0,0,0,0,0,0,0,0,0],"id":57,"left_children":[1,3,5,7,9,11,13,-1,-1,-1,-1,-1,-1,-1,-1],"loss_changes":[1.4764244E2,3.0498493E1,2.5918427E0,1.8318516E1,1.1191928E1,9.3679047E-1,4.351157E0,0E0,0E0,0E0,0E0,0E0,0E0,0E0,0E0],"parents":[2147483647,0,0,1,1,2,2,3,3,4,4,5,5,6,6],"right_children":[2,4,6,8,10,12,14,-1,-1,-1,-1,-1,-1,-1,-1],"split_conditions":[6.9E1,1.7E1,9.333333E0,5.1E1,3.94E2,2.79E2,9.2E1,-1.0818164E-2,-3.12175E-2,3.7821615E-3,-3.679442E-2,3.68771E-2,2.8508054E-2,-5.3925656E-2,3.8120143E-2],"split_indices":[0,0,3,4,5,5,0,0,0,0,0,0,0,0,0],"split_type":[0,0,0,0,0,0,0,0,0,0,0,0,0,0,0],"sum_hessian":[5.1796735E2,4.0248502E2,1.1548233E2,2.3643211E2,1.660529E2,1.12963776E2,2.5185509E0,1.5773923E2,7.869289E1,1.5751445E2,8.5384445E0,9.311984E1,1.984393E1,1.0426756E0,1.4758751E0],"tree_param":{"num_deleted":"0","num_feature":"8","num_nodes":"15","size_leaf_vector":"1"}},{"base_weights":[2.7882693E-2,-3.4925768E-1,8.0589336E-1,-7.864227E-2,-6.277052E-1,4.896267E-1,1.0535849E0,6.1647207E-3,-1.5733253E-2,-3.437062E-2,-1.0719477E-2,2.5989909E-2,2.9265701E-3,1.6592208E-2,3.6698468E-2],"categories":[],"categories_nodes":[],"categories_segments":[],"categories_sizes":[],"default_left":[0,0,0,0,0,0,0,0,0,0,0,0,0,0,0],"id":58,"left_children":[1,3,5,7,9,11,13,-1,-1,-1,-1,-1,-1,-1,-1],"loss_changes":[1.4986668E2,2.591211E1,1.3045502E1,1.6924025E1,1.976561E1,7.797077E0,4.8550415E-1,0E0,0E0,0E0,0E0,0E0,0E0,0E0,0E0],"parents":[2147483647,0,0,1,1,2,2,3,3,4,4,5,5,6,6],"right_children":[2,4,6,8,10,12,14,-1,-1,-1,-1,-1,-1,-1,-1],"split_conditions":[4E1,1.296724E4,9E1,3.2110093E0,8E0,2.15E2,6E0,6.1647207E-3,-1.5733253E-2,-3.437062E-2,-1.0719477E-2,2.5989909E-2,2.9265701E-3,1.6592208E-2,3.6698468E-2],"split_indices":[0,2,0,7,0,5,5,0,0,0,0,0,0,0,0],"split_type":[0,0,0,0,0,0,0,0,0,0,0,0,0,0,0],"sum_hessian":[5.1073846E2,3.4398105E2,1.6675743E2,1.7446507E2,1.6951598E2,7.326228E1,9.349515E1,1.0370189E2,7.076319E1,7.847511E1,9.104086E1,4.4382652E1,2.8879633E1,1.5288922E0,9.1966255E1],"tree_param":{"num_deleted":"0","num_feature":"8","num_nodes":"15","size_leaf_vector":"1"}},{"base_weights":[-8.837997E-3,-4.9364358E-1,6.288991E-1,-3.0727193E-1,-8.9677966E-1,2.347249E-1,1.0241475E0,-4.138172E-3,-2.9859198E-2,-5.324754E-3,-3.302719E-2,1.0996562E-2,-5.24272E-2,2.5335949E-2,3.737678E-2],"categories":[],"categories_nodes":[],"categories_segments":[],"categories_sizes":[],"default_left":[0,0,0,0,0,0,0,0,0,0,0,0,0,0,0],"id":59,"left_children":[1,3,5,7,9,11,13,-1,-1,-1,-1,-1,-1,-1,-1],"loss_changes":[1.5638857E2,2.1577919E1,3.401909E1,2.0528206E1,4.0252304E0,1.6058788E1,1.8299866E0,0E0,0E0,0E0,0E0,0E0,0E0,0E0,0E0],"parents":[2147483647,0,0,1,1,2,2,3,3,4,4,5,5,6,6],"right_children":[2,4,6,8,10,12,14,-1,-1,-1,-1,-1,-1,-1,-1],"split_conditions":[2.7E1,4.207317E0,7.2E1,2.83E2,6.090909E0,8.8E0,9E1,-4.138172E-3,-2.9859198E-2,-5.324754E-3,-3.302719E-2,1.0996562E-2,-5.24272E-2,2.5335949E-2,3.737678E-2],"split_indices":[0,7,0,5,3,3,0,0,0,0,0,0,0,0,0],"split_type":[0,0,0,0,0,0,0,0,0,0,0,0,0,0,0],"sum_hessian":[5.0582007E2,2.873756E2,2.1844444E2,1.9654341E2,9.0832184E1,1.0938632E2,1.0905812E2,1.4711952E2,4.9423893E1,6.790428E0,8.4041756E1,1.0440458E2,4.9817452E0,1.832289E1,9.073524E1],"tree_param":{"num_deleted":"0","num_feature":"8","num_nodes":"15","size_leaf_vector":"1"}},{"base_weights":[1.272208E-2,-4.255976E-1,6.29974E-1,-1.3525335E-1,-6.938731E-1,3.2941666E-1,1.066923E0,8.192094E-3,-2.1430604E-2,-2.0717295E-2,-3.7754294E-2,-2.456068E-2,1.4348237E-2,3.7212323E-2,2.6258022E-2],"categories":[],"categories_nodes":[],"categories_segments":[],"categories_sizes":[],"default_left":[0,0,0,0,0,0,0,0,0,0,0,0,0,0,0],"id":60,"left_children":[1,3,5,7,9,11,13,-1,-1,-1,-1,-1,-1,-1,-1],"loss_changes":[1.375666E2,2.3149101E1,2.7713135E1,2.5832851E1,5.7723236E0,1.1220385E1,2.6665497E-1,0E0,0E0,0E0,0E0,0E0,0E0,0E0,0E0],"parents":[2147483647,0,0,1,1,2,2,3,3,4,4,5,5,6,6],"right_children":[2,4,6,8,10,12,14,-1,-1,-1,-1,-1,-1,-1,-1],"split_conditions":[2.7E1,3.2110093E0,9E1,1.84E2,7.8E1,1.7E1,1.2802465E3,8.192094E-3,-2.1430604E-2,-2.0717295E-2,-3.7754294E-2,-2.456068E-2,1.4348237E-2,3.7212323E-2,2.6258022E-2],"split_indices":[0,7,0,5,4,5,6,0,0,0,0,0,0,0,0],"split_type":[0,0,0,0,0,0,0,0,0,0,0,0,0,0,0],"sum_hessian":[5.0845078E2,2.9730978E2,2.1114098E2,1.4280316E2,1.5450664E2,1.2511127E2,8.60297E1,8.07888E1,6.201435E1,1.251675E2,2.9339136E1,9.556608E0,1.15554665E2,8.3023445E1,3.0062582E0],"tree_param":{"num_deleted":"0","num_feature":"8","num_nodes":"15","size_leaf_vector":"1"}},{"base_weights":[-1.168186E-2,-3.0901438E-1,9.234013E-1,-6.342658E-1,-1.4775142E-2,5.4251987E-1,1.0427421E0,-1.6600853E-2,-3.6690608E-2,-2.9972838E-2,2.6374345E-3,-3.8960095E-2,2.3401428E-2,1.9656278E-2,3.6326826E-2],"categories":[],"categories_nodes":[],"categories_segments":[],"categories_sizes":[],"default_left":[0,0,0,0,0,0,0,0,0,0,0,0,0,0,0],"id":61,"left_children":[1,3,5,7,9,11,13,-1,-1,-1,-1,-1,-1,-1,-1],"loss_changes":[1.3733508E2,3.586306E1,5.398361E0,1.16838455E1,1.5321009E1,6.4309673E0,3.8794708E-1,0E0,0E0,0E0,0E0,0E0,0E0,0E0,0E0],"parents":[2147483647,0,0,1,1,2,2,3,3,4,4,5,5,6,6],"right_children":[2,4,6,8,10,12,14,-1,-1,-1,-1,-1,-1,-1,-1],"split_conditions":[6E1,1.2E1,9E1,5.7E1,2.7E1,1.2352941E0,6E0,-1.6600853E-2,-3.6690608E-2,-2.9972838E-2,2.6374345E-3,-3.8960095E-2,2.3401428E-2,1.9656278E-2,3.6326826E-2],"split_indices":[0,0,0,4,5,7,5,0,0,0,0,0,0,0,0],"split_type":[0,0,0,0,0,0,0,0,0,0,0,0,0,0,0],"sum_hessian":[4.9397626E2,3.7480948E2,1.1916677E2,1.7800441E2,1.9680507E2,2.845485E1,9.071192E1,1.3109612E2,4.6908306E1,1.9005266E1,1.777998E2,2.1243112E0,2.6330538E1,1.8049093E0,8.890701E1],"tree_param":{"num_deleted":"0","num_feature":"8","num_nodes":"15","size_leaf_vector":"1"}},{"base_weights":[2.1613594E-3,-2.8080398E-1,9.098146E-1,-1.6217263E-1,-8.8104135E-1,5.5510706E-1,1.0594735E0,1.1346548E-4,-1.9653397E-2,-3.557701E-2,-1.6482858E-2,1.5649479E-2,4.4778533E-2,2.3052815E-2,3.6947314E-2],"categories":[],"categories_nodes":[],"categories_segments":[],"categories_sizes":[],"default_left":[0,0,0,0,0,0,0,0,0,0,0,0,0,0,0],"id":62,"left_children":[1,3,5,7,9,11,13,-1,-1,-1,-1,-1,-1,-1,-1],"loss_changes":[1.2446631E2,2.62931E1,6.0954285E0,2.078371E1,3.6590004E0,2.5633345E0,3.195114E-1,0E0,0E0,0E0,0E0,0E0,0E0,0E0,0E0],"parents":[2147483647,0,0,1,1,2,2,3,3,4,4,5,5,6,6],"right_children":[2,4,6,8,10,12,14,-1,-1,-1,-1,-1,-1,-1,-1],"split_conditions":[5.6E1,3.29E2,9E1,4.270073E0,2.3E1,3.4E2,6E0,1.1346548E-4,-1.9653397E-2,-3.557701E-2,-1.6482858E-2,1.5649479E-2,4.4778533E-2,2.3052815E-2,3.6947314E-2],"split_indices":[0,5,0,7,0,5,5,0,0,0,0,0,0,0,0],"split_type":[0,0,0,0,0,0,0,0,0,0,0,0,0,0,0],"sum_hessian":[4.8458603E2,3.6941013E2,1.1517588E2,3.084656E2,6.094453E1,3.4200287E1,8.097559E1,2.1930618E2,8.915942E1,4.44533E1,1.649123E1,3.0089167E1,4.1111197E0,2.1865876E0,7.878901E1],"tree_param":{"num_deleted":"0","num_feature":"8","num_nodes":"15","size_leaf_vector":"1"}},{"base_weights":[-4.4221934E-2,-3.1603563E-1,9.7866106E-1,-7.449128E-1,-1.0526009E-1,6.207027E-1,1.0384312E0,-1.514363E-2,-3.4172274E-2,-9.6783845E-4,-3.5081547E-2,3.0445885E-2,-3.6981297E-3,1.6466765E-2,3.620469E-2],"categories":[],"categories_nodes":[],"categories_segments":[],"categories_sizes":[],"default_left":[0,0,0,0,0,0,0,0,0,0,0,0,0,0,0],"id":63,"left_children":[1,3,5,7,9,11,13,-1,-1,-1,-1,-1,-1,-1,-1],"loss_changes":[1.3296593E2,3.414817E1,2.1286774E0,9.321274E0,1.7811813E1,2.7452674E0,4.771881E-1,0E0,0E0,0E0,0E0,0E0,0E0,0E0,0E0],"parents":[2147483647,0,0,1,1,2,2,3,3,4,4,5,5,6,6],"right_children":[2,4,6,8,10,12,14,-1,-1,-1,-1,-1,-1,-1,-1],"split_conditions":[6.9E1,7E0,8.4E1,1.189951E4,3.82E2,1.025716E3,6E0,-1.514363E-2,-3.4172274E-2,-9.6783845E-4,-3.5081547E-2,3.0445885E-2,-3.6981297E-3,1.6466765E-2,3.620469E-2],"split_indices":[0,0,0,2,5,6,5,0,0,0,0,0,0,0,0],"split_type":[0,0,0,0,0,0,0,0,0,0,0,0,0,0,0],"sum_hessian":[4.7825818E2,3.7786035E2,1.0039783E2,1.2449209E2,2.5336824E2,1.4394818E1,8.600301E1,5.5336826E1,6.9155266E1,2.335792E2,1.978906E1,1.06041E1,3.7907176E0,1.5623335E0,8.4440674E1],"tree_param":{"num_deleted":"0","num_feature":"8","num_nodes":"15","size_leaf_vector":"1"}},{"base_weights":[-9.779553E-3,-2.643887E-1,9.719657E-1,-1.7557798E-1,-9.649714E-1,4.6972236E-1,1.0468987E0,-1.4223484E-2,6.002658E-4,-3.670051E-2,5.4481653E-3,-3.0377842E-2,2.410436E-2,1.3774463E-2,3.6511496E-2],"categories":[],"categories_nodes":[],"categories_segments":[],"categories_sizes":[],"default_left":[0,0,0,0,0,0,0,0,0,0,0,0,0,0,0],"id":64,"left_children":[1,3,5,7,9,11,13,-1,-1,-1,-1,-1,-1,-1,-1],"loss_changes":[1.1828692E2,2.3369316E1,3.6499786E0,1.5219848E1,4.66399E0,3.9074543E0,5.69191E-1,0E0,0E0,0E0,0E0,0E0,0E0,0E0,0E0],"parents":[2147483647,0,0,1,1,2,2,3,3,4,4,5,5,6,6],"right_children":[2,4,6,8,10,12,14,-1,-1,-1,-1,-1,-1,-1,-1],"split_conditions":[6.9E1,7.2E1,8.4E1,1.3E1,4.5E1,5.3E1,6E0,-1.4223484E-2,6.002658E-4,-3.670051E-2,5.4481653E-3,-3.0377842E-2,2.410436E-2,1.3774463E-2,3.6511496E-2],"split_indices":[0,4,0,0,0,5,5,0,0,0,0,0,0,0,0],"split_type":[0,0,0,0,0,0,0,0,0,0,0,0,0,0,0],"sum_hessian":[4.7324722E2,3.7579892E2,9.7448326E1,3.335358E2,4.22631E1,1.2672263E1,8.477606E1,1.4991844E2,1.8361737E2,3.887717E1,3.385928E0,1.8268428E0,1.0845421E1,1.39089E0,8.338517E1],"tree_param":{"num_deleted":"0","num_feature":"8","num_nodes":"15","size_leaf_vector":"1"}},{"base_weights":[-1.7217351E-2,-4.610132E-1,5.5013263E-1,-6.6474074E-1,-2.0126122E-1,1.9725826E-1,9.6384674E-1,-1.6826952E-2,-3.6412343E-2,6.85955E-3,-1.29284505E-2,8.94758E-3,-3.0600017E-2,2.3984894E-2,3.660168E-2],"categories":[],"categories_nodes":[],"categories_segments":[],"categories_sizes":[],"default_left":[0,0,0,0,0,0,0,0,0,0,0,0,0,0,0],"id":65,"left_children":[1,3,5,7,9,11,13,-1,-1,-1,-1,-1,-1,-1,-1],"loss_changes":[1.1942133E2,1.4073944E1,3.0376152E1,1.0295273E1,8.1082115E0,7.531333E0,2.4630356E0,0E0,0E0,0E0,0E0,0E0,0E0,0E0,0E0],"parents":[2147483647,0,0,1,1,2,2,3,3,4,4,5,5,6,6],"right_children":[2,4,6,8,10,12,14,-1,-1,-1,-1,-1,-1,-1,-1],"split_conditions":[2.6E1,1E1,7.2E1,2.6E1,6.52742E3,3.84E2,1.03E2,-1.6826952E-2,-3.6412343E-2,6.85955E-3,-1.29284505E-2,8.94758E-3,-3.0600017E-2,2.3984894E-2,3.660168E-2],"split_indices":[0,0,0,1,2,5,0,0,0,0,0,0,0,0,0],"split_type":[0,0,0,0,0,0,0,0,0,0,0,0,0,0,0],"sum_hessian":[4.7429352E2,2.6613522E2,2.0815833E2,1.4912721E2,1.17007996E2,1.12355225E2,9.58031E1,1.0253074E2,4.6596474E1,3.5341686E1,8.1666306E1,1.0629384E2,6.0613856E0,2.5287712E1,7.051538E1],"tree_param":{"num_deleted":"0","num_feature":"8","num_nodes":"15","size_leaf_vector":"1"}},{"base_weights":[4.754439E-2,-1.7734887E-1,9.502186E-1,-5.851386E-1,1.9098787E-2,4.9168175E-1,1.048537E0,-5.08886E-3,-3.0911785E-2,2.9402617E-3,-3.291786E-2,-5.763145E-3,2.9866235E-2,3.655847E-2,3.1345446E-2],"categories":[],"categories_nodes":[],"categories_segments":[],"categories_sizes":[],"default_left":[0,0,0,0,0,0,0,0,0,0,0,0,0,0,0],"id":66,"left_children":[1,3,5,7,9,11,13,-1,-1,-1,-1,-1,-1,-1,-1],"loss_changes":[9.6288666E1,3.042139E1,4.2471466E0,1.6753582E1,1.6453964E1,4.1214643E0,9.03244E-2,0E0,0E0,0E0,0E0,0E0,0E0,0E0,0E0],"parents":[2147483647,0,0,1,1,2,2,3,3,4,4,5,5,6,6],"right_children":[2,4,6,8,10,12,14,-1,-1,-1,-1,-1,-1,-1,-1],"split_conditions":[6.9E1,7E0,8.8E1,1.2E1,3.94E2,1E1,3.36E2,-5.08886E-3,-3.0911785E-2,2.9402617E-3,-3.291786E-2,-5.763145E-3,2.9866235E-2,3.655847E-2,3.1345446E-2],"split_indices":[0,0,0,1,5,1,5,0,0,0,0,0,0,0,0],"split_type":[0,0,0,0,0,0,0,0,0,0,0,0,0,0,0],"sum_hessian":[4.7427066E2,3.796692E2,9.460147E1,1.2345334E2,2.5621582E2,1.6724625E1,7.7876854E1,5.1219738E1,7.2233604E1,2.3993056E2,1.6285284E1,6.041193E0,1.0683431E1,7.243362E1,5.4432335E0],"tree_param":{"num_deleted":"0","num_feature":"8","num_nodes":"15","size_leaf_vector":"1"}},{"base_weights":[-2.4182217E-2,-2.4185811E-1,9.43882E-1,-1.447969E-1,-8.565441E-1,5.970256E-1,1.0539641E0,3.023069E-3,-1.591731E-2,-3.422799E-2,2.4118861E-2,2.9498782E-2,-9.378474E-4,3.6881484E-2,3.3004716E-2],"categories":[],"categories_nodes":[],"categories_segments":[],"categories_sizes":[],"default_left":[0,0,0,0,0,0,0,0,0,0,0,0,0,0,0],"id":67,"left_children":[1,3,5,7,9,11,13,-1,-1,-1,-1,-1,-1,-1,-1],"loss_changes":[9.836471E1,2.2728437E1,3.252617E0,2.4193882E1,1.0903744E1,3.3306274E0,6.702423E-2,0E0,0E0,0E0,0E0,0E0,0E0,0E0,0E0],"parents":[2147483647,0,0,1,1,2,2,3,3,4,4,5,5,6,6],"right_children":[2,4,6,8,10,12,14,-1,-1,-1,-1,-1,-1,-1,-1],"split_conditions":[7.2E1,3.4E2,1.03E2,3.3898306E0,5.1E1,1.0422106E3,2.93E2,3.023069E-3,-1.591731E-2,-3.422799E-2,2.4118861E-2,2.9498782E-2,-9.378474E-4,3.6881484E-2,3.3004716E-2],"split_indices":[0,5,0,7,0,6,5,0,0,0,0,0,0,0,0],"split_type":[0,0,0,0,0,0,0,0,0,0,0,0,0,0,0],"sum_hessian":[4.6682516E2,3.8113678E2,8.5688385E1,3.291786E2,5.195819E1,2.0670507E1,6.5017876E1,1.8973866E2,1.3943993E2,4.7818634E1,4.1395564E0,1.4646793E1,6.023714E0,5.6612267E1,8.405613E0],"tree_param":{"num_deleted":"0","num_feature":"8","num_nodes":"15","size_leaf_vector":"1"}},{"base_weights":[-1.7958403E-2,-2.592681E-1,8.4753317E-1,-7.091281E-1,-4.114292E-2,4.742577E-1,3.6811166E-2,-1.5017311E-2,-3.298661E-2,1.7887296E-3,-2.3796098E-2,1.19380215E-2,3.743498E-2],"categories":[],"categories_nodes":[],"categories_segments":[],"categories_sizes":[],"default_left":[0,0,0,0,0,0,0,0,0,0,0,0,0],"id":68,"left_children":[1,3,5,7,9,11,-1,-1,-1,-1,-1,-1,-1],"loss_changes":[9.691679E1,3.560228E1,8.241722E0,7.9858437E0,1.4732146E1,2.9148455E0,0E0,0E0,0E0,0E0,0E0,0E0,0E0],"parents":[2147483647,0,0,1,1,2,2,3,3,4,4,5,5],"right_children":[2,4,6,8,10,12,-1,-1,-1,-1,-1,-1,-1],"split_conditions":[5.8E1,7E0,1.03E2,1.296724E4,3.34E2,2.7E1,3.6811166E-2,-1.5017311E-2,-3.298661E-2,1.7887296E-3,-2.3796098E-2,1.19380215E-2,3.743498E-2],"split_indices":[0,0,0,2,5,1,0,0,0,0,0,0,0],"split_type":[0,0,0,0,0,0,0,0,0,0,0,0,0],"sum_hessian":[4.6407245E2,3.6290433E2,1.0116813E2,1.1848565E2,2.4441867E2,3.739784E1,6.377029E1,5.6101162E1,6.2384487E1,2.1374788E2,3.0670784E1,3.0909836E1,6.4880047E0],"tree_param":{"num_deleted":"0","num_feature":"8","num_nodes":"13","size_leaf_vector":"1"}},{"base_weights":[4.529364E-2,-2.7716282E-1,6.8980736E-1,-1.4744383E-1,-9.157568E-1,7.539805E-1,-7.006321E-1,-3.247302E-4,-2.0114228E-2,-3.5242897E-2,-3.6993918E-3,1.9242188E-2,3.5576258E-2,-4.6640214E-2,3.867692E-2],"categories":[],"categories_nodes":[],"categories_segments":[],"categories_sizes":[],"default_left":[0,0,0,0,0,0,0,0,0,0,0,0,0,0,0],"id":69,"left_children":[1,3,5,7,9,11,13,-1,-1,-1,-1,-1,-1,-1,-1],"loss_changes":[9.4733376E1,2.5153982E1,1.3565308E1,1.5162512E1,4.343746E0,7.8815155E0,7.939542E0,0E0,0E0,0E0,0E0,0E0,0E0,0E0,0E0],"parents":[2147483647,0,0,1,1,2,2,3,3,4,4,5,5,6,6],"right_children":[2,4,6,8,10,12,14,-1,-1,-1,-1,-1,-1,-1,-1],"split_conditions":[3.5E1,6.2E1,1.2857142E1,4.207317E0,2.2E1,1.03E2,7.4E1,-3.247302E-4,-2.0114228E-2,-3.5242897E-2,-3.6993918E-3,1.9242188E-2,3.5576258E-2,-4.6640214E-2,3.867692E-2],"split_indices":[0,4,7,7,0,0,0,0,0,0,0,0,0,0,0],"split_type":[0,0,0,0,0,0,0,0,0,0,0,0,0,0,0],"sum_hessian":[4.5580093E2,3.0379416E2,1.5200677E2,2.5251907E2,5.127509E1,1.453091E2,6.6976743E0,1.9172896E2,6.0790127E1,4.5366547E1,5.908543E0,8.4946526E1,6.0362583E1,4.9399614E0,1.7577128E0],"tree_param":{"num_deleted":"0","num_feature":"8","num_nodes":"15","size_leaf_vector":"1"}},{"base_weights":[-1.5059757E-2,-2.0965119E-1,9.644486E-1,-4.617403E-1,9.516848E-2,5.026582E-1,1.0326215E0,-1.092875E-2,-3.4578122E-2,1.4805878E-2,-2.885057E-3,2.9319642E-2,-2.0470286E-2,1.5773015E-2,3.6130596E-2],"categories":[],"categories_nodes":[],"categories_segments":[],"categories_sizes":[],"default_left":[0,0,0,0,0,0,0,0,0,0,0,0,0,0,0],"id":70,"left_children":[1,3,5,7,9,11,13,-1,-1,-1,-1,-1,-1,-1,-1],"loss_changes":[8.5835724E1,2.8876839E1,2.3318405E0,1.6105179E1,1.0146811E1,3.6589046E0,5.0333405E-1,0E0,0E0,0E0,0E0,0E0,0E0,0E0,0E0],"parents":[2147483647,0,0,1,1,2,2,3,3,4,4,5,5,6,6],"right_children":[2,4,6,8,10,12,14,-1,-1,-1,-1,-1,-1,-1,-1],"split_conditions":[8E1,1.7E1,9E1,6.1E1,9.2E1,2.72E2,6E0,-1.092875E-2,-3.4578122E-2,1.4805878E-2,-2.885057E-3,2.9319642E-2,-2.0470286E-2,1.5773015E-2,3.6130596E-2],"split_indices":[0,0,0,4,5,5,5,0,0,0,0,0,0,0,0],"split_type":[0,0,0,0,0,0,0,0,0,0,0,0,0,0,0],"sum_hessian":[4.5037402E2,3.7574118E2,7.463284E1,2.0567789E2,1.700633E2,9.62336E0,6.500948E1,1.6210358E2,4.3574306E1,5.933883E1,1.1072447E2,7.3185115E0,2.304848E0,1.5538068E0,6.3455677E1],"tree_param":{"num_deleted":"0","num_feature":"8","num_nodes":"15","size_leaf_vector":"1"}},{"base_weights":[2.5615036E-2,-1.6901702E-1,8.7670743E-1,-6.632774E-1,-4.5646336E-2,4.4947314E-1,9.989022E-1,3.8318157E-2,-2.6408788E-2,7.461304E-4,-3.0638289E-2,2.7925117E-2,-7.2899666E-3,3.4954794E-2,1.2615962E-2],"categories":[],"categories_nodes":[],"categories_segments":[],"categories_sizes":[],"default_left":[0,0,0,0,0,0,0,0,0,0,0,0,0,0,0],"id":71,"left_children":[1,3,5,7,9,11,13,-1,-1,-1,-1,-1,-1,-1,-1],"loss_changes":[7.359042E1,2.203672E1,4.3000374E0,1.3012102E1,1.6390532E1,4.378603E0,5.3689575E-1,0E0,0E0,0E0,0E0,0E0,0E0,0E0,0E0],"parents":[2147483647,0,0,1,1,2,2,3,3,4,4,5,5,6,6],"right_children":[2,4,6,8,10,12,14,-1,-1,-1,-1,-1,-1,-1,-1],"split_conditions":[6.9E1,4E0,9E1,6.217092E2,7.5E1,1.025716E3,7.8461537E0,3.8318157E-2,-2.6408788E-2,7.461304E-4,-3.0638289E-2,2.7925117E-2,-7.2899666E-3,3.4954794E-2,1.2615962E-2],"split_indices":[0,0,0,6,4,6,7,0,0,0,0,0,0,0,0],"split_type":[0,0,0,0,0,0,0,0,0,0,0,0,0,0,0],"sum_hessian":[4.442024E2,3.615177E2,8.2684685E1,7.219304E1,2.8932468E2,1.8411352E1,6.427334E1,3.9076123E0,6.828543E1,2.679085E2,2.1416153E1,1.1934738E1,6.4766135E0,6.290706E1,1.3662758E0],"tree_param":{"num_deleted":"0","num_feature":"8","num_nodes":"15","size_leaf_vector":"1"}},{"base_weights":[2.2783475E-2,-3.3769315E-1,5.3222144E-1,-2.7116967E-2,-7.156545E-1,2.6524884E-1,9.892427E-1,7.7382615E-3,-2.0039605E-2,3.0617164E-2,-2.5984652E-2,1.1536584E-2,-3.5216864E-2,3.5200275E-3,3.4612376E-2],"categories":[],"categories_nodes":[],"categories_segments":[],"categories_sizes":[],"default_left":[0,0,0,0,0,0,0,0,0,0,0,0,0,0,0],"id":72,"left_children":[1,3,5,7,9,11,13,-1,-1,-1,-1,-1,-1,-1,-1],"loss_changes":[8.1276794E1,3.0414492E1,2.2363747E1,1.9785852E1,6.930027E0,1.0249497E1,7.865677E-1,0E0,0E0,0E0,0E0,0E0,0E0,0E0,0E0],"parents":[2147483647,0,0,1,1,2,2,3,3,4,4,5,5,6,6],"right_children":[2,4,6,8,10,12,14,-1,-1,-1,-1,-1,-1,-1,-1],"split_conditions":[2.7E1,3.3898306E0,8.4E1,2.2E2,5E0,9E0,6E0,7.7382615E-3,-2.0039605E-2,3.0617164E-2,-2.5984652E-2,1.1536584E-2,-3.5216864E-2,3.5200275E-3,3.4612376E-2],"split_indices":[0,7,0,5,3,3,5,0,0,0,0,0,0,0,0],"split_type":[0,0,0,0,0,0,0,0,0,0,0,0,0,0,0],"sum_hessian":[4.4257068E2,2.5916547E2,1.8340521E2,1.4228166E2,1.1688382E2,1.1579172E2,6.761349E1,9.783745E1,4.4444206E1,2.629949E0,1.1425387E2,1.0990905E2,5.882664E0,1.0119026E0,6.6601585E1],"tree_param":{"num_deleted":"0","num_feature":"8","num_nodes":"15","size_leaf_vector":"1"}},{"base_weights":[2.5198197E-3,6.769983E-2,-8.0962425E-1,1.381802E-1,-3.96437E-1,-5.6358016E-1,-1.0564538E0,6.863916E-3,-1.4282333E-2,2.5991986E-2,-1.8708277E-2,-2.2634987E-3,-3.4226038E-2,-5.2407116E-2,-3.518699E-2],"categories":[],"categories_nodes":[],"categories_segments":[],"categories_sizes":[],"default_left":[0,0,0,0,0,0,0,0,0,0,0,0,0,0,0],"id":73,"left_children":[1,3,5,7,9,11,13,-1,-1,-1,-1,-1,-1,-1,-1],"loss_changes":[2.2981236E1,1.3148915E1,1.9398651E0,1.1678202E1,8.85557E0,3.4351807E0,2.455101E-1,0E0,0E0,0E0,0E0,0E0,0E0,0E0,0E0],"parents":[2147483647,0,0,1,1,2,2,3,3,4,4,5,5,6,6],"right_children":[2,4,6,8,10,12,14,-1,-1,-1,-1,-1,-1,-1,-1],"split_conditions":[7.5E1,5.342466E0,4.4541483E0,3.34E2,5.5666666E0,3.94E2,3.889053E4,6.863916E-3,-1.4282333E-2,2.5991986E-2,-1.8708277E-2,-2.2634987E-3,-3.4226038E-2,-5.2407116E-2,-3.518699E-2],"split_indices":[4,7,7,5,3,5,2,0,0,0,0,0,0,0,0],"split_type":[0,0,0,0,0,0,0,0,0,0,0,0,0,0,0],"sum_hessian":[4.3428378E2,4.0203326E2,3.225051E1,3.490535E2,5.2979767E1,1.6176542E1,1.6073969E1,3.14518E2,3.45355E1,5.942366E0,4.7037403E1,7.487578E0,8.688964E0,1.1723267E0,1.4901643E1],"tree_param":{"num_deleted":"0","num_feature":"8","num_nodes":"15","size_leaf_vector":"1"}},{"base_weights":[-2.7883036E-2,-2.7778167E-1,7.968341E-1,-7.940006E-1,-1.4063695E-1,5.1706684E-1,1.0373074E0,-3.120627E-3,-3.0866355E-2,2.4594807E-3,-1.3472562E-2,1.1355566E-2,3.6710225E-2,3.644419E-2,1.8952906E-2],"categories":[],"categories_nodes":[],"categories_segments":[],"categories_sizes":[],"default_left":[0,0,0,0,0,0,0,0,0,0,0,0,0,0,0],"id":74,"left_children":[1,3,5,7,9,11,13,-1,-1,-1,-1,-1,-1,-1,-1],"loss_changes":[8.9223526E1,2.3513853E1,6.75478E0,4.8979645E0,1.3888328E1,4.769348E0,4.6513748E-1,0E0,0E0,0E0,0E0,0E0,0E0,0E0,0E0],"parents":[2147483647,0,0,1,1,2,2,3,3,4,4,5,5,6,6],"right_children":[2,4,6,8,10,12,14,-1,-1,-1,-1,-1,-1,-1,-1],"split_conditions":[5.1E1,4E0,1.03E2,3.1E1,1.230773E4,2.4E1,1.2802465E3,-3.120627E-3,-3.0866355E-2,2.4594807E-3,-1.3472562E-2,1.1355566E-2,3.6710225E-2,3.644419E-2,1.8952906E-2],"split_indices":[0,0,0,5,2,1,6,0,0,0,0,0,0,0,0],"split_type":[0,0,0,0,0,0,0,0,0,0,0,0,0,0,0],"sum_hessian":[4.3294565E2,3.3227664E2,1.0066899E2,6.972795E1,2.625487E2,4.6556725E1,5.4112263E1,8.694776E0,6.1033176E1,1.4198259E2,1.2056612E2,3.4646553E1,1.1910173E1,5.2132954E1,1.9793087E0],"tree_param":{"num_deleted":"0","num_feature":"8","num_nodes":"15","size_leaf_vector":"1"}},{"base_weights":[1.2496409E-2,-1.9322534E-1,8.34128E-1,-3.6292344E-1,1.3053206E-1,4.6885514E-1,1.0199802E0,-7.971073E-3,-3.0668098E-2,-2.9608296E-2,7.968835E-3,2.3350626E-2,2.1447449E-3,1.6442098E-2,3.575373E-2],"categories":[],"categories_nodes":[],"categories_segments":[],"categories_sizes":[],"default_left":[0,0,0,0,0,0,0,0,0,0,0,0,0,0,0],"id":75,"left_children":[1,3,5,7,9,11,13,-1,-1,-1,-1,-1,-1,-1,-1],"loss_changes":[7.286047E1,1.894062E1,5.8427277E0,1.5677801E1,1.1738768E1,2.450611E0,4.6873093E-1,0E0,0E0,0E0,0E0,0E0,0E0,0E0,0E0],"parents":[2147483647,0,0,1,1,2,2,3,3,4,4,5,5,6,6],"right_children":[2,4,6,8,10,12,14,-1,-1,-1,-1,-1,-1,-1,-1],"split_conditions":[5.8E1,2.2E1,9E1,2.9E1,1.7E1,9.94966E2,6E0,-7.971073E-3,-3.0668098E-2,-2.9608296E-2,7.968835E-3,2.3350626E-2,2.1447449E-3,1.6442098E-2,3.575373E-2],"split_indices":[0,0,0,1,5,6,5,0,0,0,0,0,0,0,0],"split_type":[0,0,0,0,0,0,0,0,0,0,0,0,0,0,0],"sum_hessian":[4.3101157E2,3.4469467E2,8.631688E1,2.2617686E2,1.1851781E2,2.9130335E1,5.7186546E1,1.8076987E2,4.5406994E1,1.090867E1,1.0760914E2,1.9270834E1,9.859501E0,1.6198664E0,5.556668E1],"tree_param":{"num_deleted":"0","num_feature":"8","num_nodes":"15","size_leaf_vector":"1"}},{"base_weights":[-1.6800936E-2,1.2672031E-1,-4.8826516E-1,1.8297452E-1,-7.106784E-1,-2.647564E-1,-8.883367E-1,-4.4972513E-2,7.509161E-3,1.8130999E-2,-3.0160733E-2,-1.2082462E-3,-2.526426E-2,-2.0481424E-2,-3.6356777E-2],"categories":[],"categories_nodes":[],"categories_segments":[],"categories_sizes":[],"default_left":[0,0,0,0,0,0,0,0,0,0,0,0,0,0,0],"id":76,"left_children":[1,3,5,7,9,11,13,-1,-1,-1,-1,-1,-1,-1,-1],"loss_changes":[2.8603281E1,1.52575245E1,8.808678E0,1.5564349E1,4.109358E0,6.7855926E0,1.6989422E0,0E0,0E0,0E0,0E0,0E0,0E0,0E0,0E0],"parents":[2147483647,0,0,1,1,2,2,3,3,4,4,5,5,6,6],"right_children":[2,4,6,8,10,12,14,-1,-1,-1,-1,-1,-1,-1,-1],"split_conditions":[4.285714E0,3.96E2,2E1,2.9E1,1.3333334E0,1.0360814E3,4.8E0,-4.4972513E-2,7.509161E-3,1.8130999E-2,-3.0160733E-2,-1.2082462E-3,-2.526426E-2,-2.0481424E-2,-3.6356777E-2],"split_indices":[7,5,1,5,7,6,7,0,0,0,0,0,0,0,0],"split_type":[0,0,0,0,0,0,0,0,0,0,0,0,0,0,0],"sum_hessian":[4.22656E2,3.240029E2,9.86531E1,3.0362112E2,2.0381794E1,6.331277E1,3.5340332E1,6.887849E0,2.9673328E2,2.3658237E0,1.801597E1,4.245315E1,2.085962E1,1.2688747E1,2.2651583E1],"tree_param":{"num_deleted":"0","num_feature":"8","num_nodes":"15","size_leaf_vector":"1"}},{"base_weights":[8.812593E-3,-1.8936917E-1,8.380383E-1,-4.6470246E-1,5.3467885E-2,4.8195946E-1,1.000282E0,-1.0924664E-2,-3.355404E-2,4.654513E-3,-3.7578925E-2,2.5298513E-2,-5.7421945E-4,1.6540619E-2,3.506021E-2],"categories":[],"categories_nodes":[],"categories_segments":[],"categories_sizes":[],"default_left":[0,0,0,0,0,0,0,0,0,0,0,0,0,0,0],"id":77,"left_children":[1,3,5,7,9,11,13,-1,-1,-1,-1,-1,-1,-1,-1],"loss_changes":[6.999626E1,2.2986376E1,4.7295E0,1.2100616E1,1.6955397E1,3.2271504E0,4.3104172E-1,0E0,0E0,0E0,0E0,0E0,0E0,0E0,0E0],"parents":[2147483647,0,0,1,1,2,2,3,3,4,4,5,5,6,6],"right_children":[2,4,6,8,10,12,14,-1,-1,-1,-1,-1,-1,-1,-1],"split_conditions":[6E1,1.3E1,9E1,2.7E1,8.625E0,2.15E2,6E0,-1.0924664E-2,-3.355404E-2,4.654513E-3,-3.7578925E-2,2.5298513E-2,-5.7421945E-4,1.6540619E-2,3.506021E-2],"split_indices":[0,0,0,1,3,5,5,0,0,0,0,0,0,0,0],"split_type":[0,0,0,0,0,0,0,0,0,0,0,0,0,0,0],"sum_hessian":[4.2588303E2,3.437231E2,8.215991E1,1.6110355E2,1.8261957E2,2.5741072E1,5.6418842E1,1.2468115E2,3.6422394E1,1.7048576E2,1.2133795E1,1.7139647E1,8.601424E0,1.6257675E0,5.4793076E1],"tree_param":{"num_deleted":"0","num_feature":"8","num_nodes":"15","size_leaf_vector":"1"}},{"base_weights":[-6.8638615E-2,-2.5243026E-1,8.5619414E-1,-1.4613721E-1,-8.5230744E-1,4.3710056E-1,9.93533E-1,-1.4184135E-2,6.4663595E-4,-3.571183E-2,-1.3148747E-2,1.9687746E-2,-5.4720752E-2,1.3170654E-2,3.488336E-2],"categories":[],"categories_nodes":[],"categories_segments":[],"categories_sizes":[],"default_left":[0,0,0,0,0,0,0,0,0,0,0,0,0,0,0],"id":78,"left_children":[1,3,5,7,9,11,13,-1,-1,-1,-1,-1,-1,-1,-1],"loss_changes":[7.084017E1,2.2160048E1,3.960163E0,1.2895823E1,4.475582E0,4.5889063E0,5.2121735E-1,0E0,0E0,0E0,0E0,0E0,0E0,0E0,0E0],"parents":[2147483647,0,0,1,1,2,2,3,3,4,4,5,5,6,6],"right_children":[2,4,6,8,10,12,14,-1,-1,-1,-1,-1,-1,-1,-1],"split_conditions":[6.9E1,6.2E1,9E1,1.1E1,2.2E1,8.698113E0,6E0,-1.4184135E-2,6.4663595E-4,-3.571183E-2,-1.3148747E-2,1.9687746E-2,-5.4720752E-2,1.3170654E-2,3.488336E-2],"split_indices":[0,4,0,0,0,3,5,0,0,0,0,0,0,0,0],"split_type":[0,0,0,0,0,0,0,0,0,0,0,0,0,0,0],"sum_hessian":[4.1679803E2,3.4771088E2,6.9087135E1,2.9539096E2,5.231994E1,1.7073866E1,5.201327E1,1.1339193E2,1.8199902E2,3.772373E1,1.4596211E1,1.6025475E1,1.0483904E0,1.4140753E0,5.0599197E1],"tree_param":{"num_deleted":"0","num_feature":"8","num_nodes":"15","size_leaf_vector":"1"}},{"base_weights":[-2.6066618E-2,-2.0266466E-1,8.6702025E-1,-5.878563E-1,-6.984052E-2,4.5315155E-1,9.9299115E-1,4.0137492E-2,-2.2456383E-2,-4.3211336E-4,-3.649389E-2,-3.4383573E-2,2.8423868E-2,3.5431255E-2,2.7979482E-2],"categories":[],"categories_nodes":[],"categories_segments":[],"categories_sizes":[],"default_left":[0,0,0,0,0,0,0,0,0,0,0,0,0,0,0],"id":79,"left_children":[1,3,5,7,9,11,13,-1,-1,-1,-1,-1,-1,-1,-1],"loss_changes":[6.5953705E1,1.78581E1,3.5825233E0,9.804621E0,1.46837225E1,8.653621E0,2.997284E-1,0E0,0E0,0E0,0E0,0E0,0E0,0E0,0E0],"parents":[2147483647,0,0,1,1,2,2,3,3,4,4,5,5,6,6],"right_children":[2,4,6,8,10,12,14,-1,-1,-1,-1,-1,-1,-1,-1],"split_conditions":[6.9E1,6E0,9E1,6E0,3.94E2,1.6981132E0,2.93E2,4.0137492E-2,-2.2456383E-2,-4.3211336E-4,-3.649389E-2,-3.4383573E-2,2.8423868E-2,3.5431255E-2,2.7979482E-2],"split_indices":[0,0,0,3,5,7,5,0,0,0,0,0,0,0,0],"split_type":[0,0,0,0,0,0,0,0,0,0,0,0,0,0,0],"sum_hessian":[4.1821762E2,3.4918414E2,6.903347E1,8.951125E1,2.5967288E2,1.6131311E1,5.2902157E1,3.0832388E0,8.642802E1,2.4543452E2,1.4238365E1,3.2754705E0,1.285584E1,4.468545E1,8.216706E0],"tree_param":{"num_deleted":"0","num_feature":"8","num_nodes":"15","size_leaf_vector":"1"}},{"base_weights":[5.221007E-2,1.8819806E-1,-3.9495596E-1,2.758409E-1,-3.7407255E-1,3.6845088E-1,-4.7697064E-1,1.1609629E-2,-5.7600993E-3,-7.79208E-3,-4.355255E-2,-1.6511073E-2,3.2240063E-2,-1.3418326E-2,-3.2956723E-2],"categories":[],"categories_nodes":[],"categories_segments":[],"categories_sizes":[],"default_left":[0,0,0,0,0,0,0,0,0,0,0,0,0,0,0],"id":80,"left_children":[1,3,5,7,9,11,13,-1,-1,-1,-1,-1,-1,-1,-1],"loss_changes":[2.5116531E1,1.56090975E1,6.0314636E0,7.3342648E0,5.605783E0,4.4729433E0,3.6531448E0,0E0,0E0,0E0,0E0,0E0,0E0,0E0,0E0],"parents":[2147483647,0,0,1,1,2,2,3,3,4,4,5,5,6,6],"right_children":[2,4,6,8,10,12,14,-1,-1,-1,-1,-1,-1,-1,-1],"split_conditions":[4.285714E0,3.32E2,6.090909E0,8.4E0,1.0474872E3,5.7970856E2,4.4E1,1.1609629E-2,-5.7600993E-3,-7.79208E-3,-4.355255E-2,-1.6511073E-2,3.2240063E-2,-1.3418326E-2,-3.2956723E-2],"split_indices":[7,5,3,3,6,6,1,0,0,0,0,0,0,0,0],"split_type":[0,0,0,0,0,0,0,0,0,0,0,0,0,0,0],"sum_hessian":[4.1307034E2,3.167644E2,9.630593E1,2.740654E2,4.269901E1,9.329104E0,8.697683E1,2.4116644E2,3.289896E1,3.659548E1,6.103527E0,3.7277584E0,5.601346E0,7.342797E1,1.3548858E1],"tree_param":{"num_deleted":"0","num_feature":"8","num_nodes":"15","size_leaf_vector":"1"}},{"base_weights":[-3.2830633E-2,2.1716503E-2,-7.646521E-1,-3.4447435E-1,9.432518E-2,-5.1296824E-1,-1.0294803E0,5.159638E-3,-2.3524566E-2,1.1561762E-2,-1.2810683E-3,-2.4205558E-2,2.6977932E-2,-5.262211E-2,-3.414056E-2],"categories":[],"categories_nodes":[],"categories_segments":[],"categories_sizes":[],"default_left":[0,0,0,0,0,0,0,0,0,0,0,0,0,0,0],"id":81,"left_children":[1,3,5,7,9,11,13,-1,-1,-1,-1,-1,-1,-1,-1],"loss_changes":[1.6238474E1,1.0057703E1,1.8628597E0,1.0421003E1,9.987751E0,3.529951E0,2.4509239E-1,0E0,0E0,0E0,0E0,0E0,0E0,0E0,0E0],"parents":[2147483647,0,0,1,1,2,2,3,3,4,4,5,5,6,6],"right_children":[2,4,6,8,10,12,14,-1,-1,-1,-1,-1,-1,-1,-1],"split_conditions":[7.5E1,5.1E1,4.285714E0,7.8881555E2,1.1E1,4.1752577E0,3.889053E4,5.159638E-3,-2.3524566E-2,1.1561762E-2,-1.2810683E-3,-2.4205558E-2,2.6977932E-2,-5.262211E-2,-3.414056E-2],"split_indices":[4,5,7,6,1,7,2,0,0,0,0,0,0,0,0],"split_type":[0,0,0,0,0,0,0,0,0,0,0,0,0,0,0],"sum_hessian":[4.065829E2,3.7836807E2,2.8214817E1,6.2582935E1,3.1578516E2,1.4490704E1,1.3724114E1,2.5365791E1,3.7217144E1,1.1159953E2,2.0418562E2,1.2659851E1,1.830852E0,1.0143148E0,1.27098E1],"tree_param":{"num_deleted":"0","num_feature":"8","num_nodes":"15","size_leaf_vector":"1"}},{"base_weights":[3.6731873E-2,-1.0261001E-1,1.0103221E0,-6.6282403E-1,1.5493026E-2,1.6926512E-2,1.0272207E0,-1.6067106E-2,-3.7107673E-2,2.2331725E-3,-2.9289171E-2,3.2375697E-2,3.613916E-2],"categories":[],"categories_nodes":[],"categories_segments":[],"categories_sizes":[],"default_left":[0,0,0,0,0,0,0,0,0,0,0,0,0],"id":82,"left_children":[1,3,5,